FANN_FLO_2.1
num_layers=3
learning_rate=0.700000
connection_rate=1.000000
network_type=0
learning_momentum=0.000000
training_algorithm=2
train_error_function=1
train_stop_function=0
cascade_output_change_fraction=0.010000
quickprop_decay=-0.000100
quickprop_mu=1.750000
rprop_increase_factor=1.200000
rprop_decrease_factor=0.500000
rprop_delta_min=0.000000
rprop_delta_max=50.000000
rprop_delta_zero=0.100000
cascade_output_stagnation_epochs=12
cascade_candidate_change_fraction=0.010000
cascade_candidate_stagnation_epochs=12
cascade_max_out_epochs=150
cascade_min_out_epochs=50
cascade_max_cand_epochs=150
cascade_min_cand_epochs=50
cascade_num_candidate_groups=2
bit_fail_limit=3.49999994039535522461e-01
cascade_candidate_limit=1.00000000000000000000e+03
cascade_weight_multiplier=4.00000005960464477539e-01
cascade_activation_functions_count=10
cascade_activation_functions=3 5 7 8 10 11 14 15 16 17 
cascade_activation_steepnesses_count=4
cascade_activation_steepnesses=2.50000000000000000000e-01 5.00000000000000000000e-01 7.50000000000000000000e-01 1.00000000000000000000e+00 
layer_sizes=193 11 2 
scale_included=0
neurons (num_inputs, activation_function, activation_steepness)=(0, 0, 0.00000000000000000000e+00) (0, 0, 0.00000000000000000000e+00) (0, 0, 0.00000000000000000000e+00) (0, 0, 0.00000000000000000000e+00) (0, 0, 0.00000000000000000000e+00) (0, 0, 0.00000000000000000000e+00) (0, 0, 0.00000000000000000000e+00) (0, 0, 0.00000000000000000000e+00) (0, 0, 0.00000000000000000000e+00) (0, 0, 0.00000000000000000000e+00) (0, 0, 0.00000000000000000000e+00) (0, 0, 0.00000000000000000000e+00) (0, 0, 0.00000000000000000000e+00) (0, 0, 0.00000000000000000000e+00) (0, 0, 0.00000000000000000000e+00) (0, 0, 0.00000000000000000000e+00) (0, 0, 0.00000000000000000000e+00) (0, 0, 0.00000000000000000000e+00) (0, 0, 0.00000000000000000000e+00) (0, 0, 0.00000000000000000000e+00) (0, 0, 0.00000000000000000000e+00) (0, 0, 0.00000000000000000000e+00) (0, 0, 0.00000000000000000000e+00) (0, 0, 0.00000000000000000000e+00) (0, 0, 0.00000000000000000000e+00) (0, 0, 0.00000000000000000000e+00) (0, 0, 0.00000000000000000000e+00) (0, 0, 0.00000000000000000000e+00) (0, 0, 0.00000000000000000000e+00) (0, 0, 0.00000000000000000000e+00) (0, 0, 0.00000000000000000000e+00) (0, 0, 0.00000000000000000000e+00) (0, 0, 0.00000000000000000000e+00) (0, 0, 0.00000000000000000000e+00) (0, 0, 0.00000000000000000000e+00) (0, 0, 0.00000000000000000000e+00) (0, 0, 0.00000000000000000000e+00) (0, 0, 0.00000000000000000000e+00) (0, 0, 0.00000000000000000000e+00) (0, 0, 0.00000000000000000000e+00) (0, 0, 0.00000000000000000000e+00) (0, 0, 0.00000000000000000000e+00) (0, 0, 0.00000000000000000000e+00) (0, 0, 0.00000000000000000000e+00) (0, 0, 0.00000000000000000000e+00) (0, 0, 0.00000000000000000000e+00) (0, 0, 0.00000000000000000000e+00) (0, 0, 0.00000000000000000000e+00) (0, 0, 0.00000000000000000000e+00) (0, 0, 0.00000000000000000000e+00) (0, 0, 0.00000000000000000000e+00) (0, 0, 0.00000000000000000000e+00) (0, 0, 0.00000000000000000000e+00) (0, 0, 0.00000000000000000000e+00) (0, 0, 0.00000000000000000000e+00) (0, 0, 0.00000000000000000000e+00) (0, 0, 0.00000000000000000000e+00) (0, 0, 0.00000000000000000000e+00) (0, 0, 0.00000000000000000000e+00) (0, 0, 0.00000000000000000000e+00) (0, 0, 0.00000000000000000000e+00) (0, 0, 0.00000000000000000000e+00) (0, 0, 0.00000000000000000000e+00) (0, 0, 0.00000000000000000000e+00) (0, 0, 0.00000000000000000000e+00) (0, 0, 0.00000000000000000000e+00) (0, 0, 0.00000000000000000000e+00) (0, 0, 0.00000000000000000000e+00) (0, 0, 0.00000000000000000000e+00) (0, 0, 0.00000000000000000000e+00) (0, 0, 0.00000000000000000000e+00) (0, 0, 0.00000000000000000000e+00) (0, 0, 0.00000000000000000000e+00) (0, 0, 0.00000000000000000000e+00) (0, 0, 0.00000000000000000000e+00) (0, 0, 0.00000000000000000000e+00) (0, 0, 0.00000000000000000000e+00) (0, 0, 0.00000000000000000000e+00) (0, 0, 0.00000000000000000000e+00) (0, 0, 0.00000000000000000000e+00) (0, 0, 0.00000000000000000000e+00) (0, 0, 0.00000000000000000000e+00) (0, 0, 0.00000000000000000000e+00) (0, 0, 0.00000000000000000000e+00) (0, 0, 0.00000000000000000000e+00) (0, 0, 0.00000000000000000000e+00) (0, 0, 0.00000000000000000000e+00) (0, 0, 0.00000000000000000000e+00) (0, 0, 0.00000000000000000000e+00) (0, 0, 0.00000000000000000000e+00) (0, 0, 0.00000000000000000000e+00) (0, 0, 0.00000000000000000000e+00) (0, 0, 0.00000000000000000000e+00) (0, 0, 0.00000000000000000000e+00) (0, 0, 0.00000000000000000000e+00) (0, 0, 0.00000000000000000000e+00) (0, 0, 0.00000000000000000000e+00) (0, 0, 0.00000000000000000000e+00) (0, 0, 0.00000000000000000000e+00) (0, 0, 0.00000000000000000000e+00) (0, 0, 0.00000000000000000000e+00) (0, 0, 0.00000000000000000000e+00) (0, 0, 0.00000000000000000000e+00) (0, 0, 0.00000000000000000000e+00) (0, 0, 0.00000000000000000000e+00) (0, 0, 0.00000000000000000000e+00) (0, 0, 0.00000000000000000000e+00) (0, 0, 0.00000000000000000000e+00) (0, 0, 0.00000000000000000000e+00) (0, 0, 0.00000000000000000000e+00) (0, 0, 0.00000000000000000000e+00) (0, 0, 0.00000000000000000000e+00) (0, 0, 0.00000000000000000000e+00) (0, 0, 0.00000000000000000000e+00) (0, 0, 0.00000000000000000000e+00) (0, 0, 0.00000000000000000000e+00) (0, 0, 0.00000000000000000000e+00) (0, 0, 0.00000000000000000000e+00) (0, 0, 0.00000000000000000000e+00) (0, 0, 0.00000000000000000000e+00) (0, 0, 0.00000000000000000000e+00) (0, 0, 0.00000000000000000000e+00) (0, 0, 0.00000000000000000000e+00) (0, 0, 0.00000000000000000000e+00) (0, 0, 0.00000000000000000000e+00) (0, 0, 0.00000000000000000000e+00) (0, 0, 0.00000000000000000000e+00) (0, 0, 0.00000000000000000000e+00) (0, 0, 0.00000000000000000000e+00) (0, 0, 0.00000000000000000000e+00) (0, 0, 0.00000000000000000000e+00) (0, 0, 0.00000000000000000000e+00) (0, 0, 0.00000000000000000000e+00) (0, 0, 0.00000000000000000000e+00) (0, 0, 0.00000000000000000000e+00) (0, 0, 0.00000000000000000000e+00) (0, 0, 0.00000000000000000000e+00) (0, 0, 0.00000000000000000000e+00) (0, 0, 0.00000000000000000000e+00) (0, 0, 0.00000000000000000000e+00) (0, 0, 0.00000000000000000000e+00) (0, 0, 0.00000000000000000000e+00) (0, 0, 0.00000000000000000000e+00) (0, 0, 0.00000000000000000000e+00) (0, 0, 0.00000000000000000000e+00) (0, 0, 0.00000000000000000000e+00) (0, 0, 0.00000000000000000000e+00) (0, 0, 0.00000000000000000000e+00) (0, 0, 0.00000000000000000000e+00) (0, 0, 0.00000000000000000000e+00) (0, 0, 0.00000000000000000000e+00) (0, 0, 0.00000000000000000000e+00) (0, 0, 0.00000000000000000000e+00) (0, 0, 0.00000000000000000000e+00) (0, 0, 0.00000000000000000000e+00) (0, 0, 0.00000000000000000000e+00) (0, 0, 0.00000000000000000000e+00) (0, 0, 0.00000000000000000000e+00) (0, 0, 0.00000000000000000000e+00) (0, 0, 0.00000000000000000000e+00) (0, 0, 0.00000000000000000000e+00) (0, 0, 0.00000000000000000000e+00) (0, 0, 0.00000000000000000000e+00) (0, 0, 0.00000000000000000000e+00) (0, 0, 0.00000000000000000000e+00) (0, 0, 0.00000000000000000000e+00) (0, 0, 0.00000000000000000000e+00) (0, 0, 0.00000000000000000000e+00) (0, 0, 0.00000000000000000000e+00) (0, 0, 0.00000000000000000000e+00) (0, 0, 0.00000000000000000000e+00) (0, 0, 0.00000000000000000000e+00) (0, 0, 0.00000000000000000000e+00) (0, 0, 0.00000000000000000000e+00) (0, 0, 0.00000000000000000000e+00) (0, 0, 0.00000000000000000000e+00) (0, 0, 0.00000000000000000000e+00) (0, 0, 0.00000000000000000000e+00) (0, 0, 0.00000000000000000000e+00) (0, 0, 0.00000000000000000000e+00) (0, 0, 0.00000000000000000000e+00) (0, 0, 0.00000000000000000000e+00) (0, 0, 0.00000000000000000000e+00) (0, 0, 0.00000000000000000000e+00) (0, 0, 0.00000000000000000000e+00) (0, 0, 0.00000000000000000000e+00) (0, 0, 0.00000000000000000000e+00) (0, 0, 0.00000000000000000000e+00) (0, 0, 0.00000000000000000000e+00) (0, 0, 0.00000000000000000000e+00) (0, 0, 0.00000000000000000000e+00) (0, 0, 0.00000000000000000000e+00) (0, 0, 0.00000000000000000000e+00) (193, 4, 5.00000000000000000000e-01) (193, 4, 5.00000000000000000000e-01) (193, 4, 5.00000000000000000000e-01) (193, 4, 5.00000000000000000000e-01) (193, 4, 5.00000000000000000000e-01) (193, 4, 5.00000000000000000000e-01) (193, 4, 5.00000000000000000000e-01) (193, 4, 5.00000000000000000000e-01) (193, 4, 5.00000000000000000000e-01) (193, 4, 5.00000000000000000000e-01) (0, 0, 0.00000000000000000000e+00) (11, 4, 5.00000000000000000000e-01) (0, 0, 0.00000000000000000000e+00) 
connections (connected_to_neuron, weight)=(0, -5.86729645729064941406e-02) (1, -2.00836032629013061523e-01) (2, 4.66057062149047851562e-01) (3, 2.33210191130638122559e-01) (4, 5.29216229915618896484e-01) (5, -8.34837555885314941406e-02) (6, 4.10116434097290039062e-01) (7, 3.81350517272949218750e-01) (8, 8.88150334358215332031e-01) (9, 6.29960834980010986328e-01) (10, 5.12492597103118896484e-01) (11, 5.16563653945922851562e-01) (12, 6.12895429134368896484e-01) (13, 5.07530450820922851562e-01) (14, -2.16442734003067016602e-01) (15, -1.08959794044494628906e-01) (16, -4.08689975738525390625e-02) (17, -1.65319681167602539062e-01) (18, 1.77525863051414489746e-01) (19, 8.37697535753250122070e-02) (20, 4.39293146133422851562e-01) (21, -1.54638528823852539062e-01) (22, -1.82739108800888061523e-01) (23, 5.58214068412780761719e-01) (24, 4.79966998100280761719e-01) (25, 4.93956208229064941406e-01) (26, 6.31706476211547851562e-01) (27, 2.39096999168395996094e-01) (28, 3.49087297916412353516e-01) (29, 1.67271956801414489746e-01) (30, -1.50665134191513061523e-01) (31, -9.69175696372985839844e-02) (32, -8.47837924957275390625e-02) (33, -7.11179971694946289062e-02) (34, 5.88377594947814941406e-01) (35, 9.75558757781982421875e-01) (36, -5.27586340904235839844e-02) (37, -4.71678376197814941406e-02) (38, 5.17778277397155761719e-01) (39, 8.99606585502624511719e-01) (40, 5.51646649837493896484e-01) (41, 4.83604669570922851562e-01) (42, 4.81486737728118896484e-01) (43, 5.22911310195922851562e-01) (44, 5.44511675834655761719e-01) (45, 4.64401066303253173828e-01) (46, -7.31077790260314941406e-02) (47, -1.47473007440567016602e-01) (48, 5.02183794975280761719e-01) (49, 5.30681073665618896484e-01) (50, 4.98149335384368896484e-01) (51, 8.04568648338317871094e-01) (52, 5.91923773288726806641e-01) (53, 6.17247223854064941406e-01) (54, 5.57408392429351806641e-01) (55, 5.43919622898101806641e-01) (56, 4.97282624244689941406e-01) (57, 5.96818745136260986328e-01) (58, -3.70115637779235839844e-02) (59, -2.12982028722763061523e-01) (60, -1.60162210464477539062e-01) (61, 5.33543646335601806641e-01) (62, 4.67570722103118896484e-01) (63, 7.43142664432525634766e-02) (64, 8.86575579643249511719e-01) (65, 6.31865143775939941406e-01) (66, 5.17576813697814941406e-01) (67, -1.99474960565567016602e-01) (68, -1.45080417394638061523e-01) (69, -1.45330667495727539062e-01) (70, -2.08068698644638061523e-01) (71, 4.56108331680297851562e-01) (72, 6.31492853164672851562e-01) (73, 5.70945978164672851562e-01) (74, 3.30884754657745361328e-01) (75, 5.02006769180297851562e-01) (76, 4.53599810600280761719e-01) (77, -2.10778653621673583984e-01) (78, -2.09863126277923583984e-01) (79, -1.29693448543548583984e-01) (80, -9.44212675094604492188e-02) (81, 1.10396549105644226074e-01) (82, -5.78306913375854492188e-02) (83, -1.19140475988388061523e-01) (84, 3.32380115985870361328e-01) (85, 3.45301270484924316406e-01) (86, -1.24737411737442016602e-01) (87, 3.82418632507324218750e-01) (88, 5.47435224056243896484e-01) (89, 5.07805109024047851562e-01) (90, 4.72685456275939941406e-01) (91, 4.62596356868743896484e-01) (92, 2.16697603464126586914e-02) (93, 2.38184556365013122559e-01) (94, -1.80566251277923583984e-01) (95, -1.29711776971817016602e-01) (96, 1.25621572136878967285e-01) (97, -1.02105557918548583984e-01) (98, -7.93394446372985839844e-02) (99, -1.29583597183227539062e-01) (100, -1.53790146112442016602e-01) (101, 5.67418158054351806641e-01) (102, 9.06003117561340332031e-01) (103, 4.08224344253540039062e-01) (104, 4.41758990287780761719e-01) (105, 3.74246001243591308594e-01) (106, 5.11418402194976806641e-01) (107, 6.14049017429351806641e-01) (108, 5.09544610977172851562e-01) (109, -2.26696640253067016602e-01) (110, -2.02252060174942016602e-01) (111, 5.82353413105010986328e-01) (112, 5.34935235977172851562e-01) (113, -1.87109231948852539062e-01) (114, -1.88171237707138061523e-01) (115, -1.60009622573852539062e-01) (116, 6.14897370338439941406e-01) (117, 1.73581898212432861328e-01) (118, 3.92892301082611083984e-01) (119, 5.93882977962493896484e-01) (120, 4.39647138118743896484e-01) (121, -6.20290637016296386719e-04) (122, -1.01592898368835449219e-01) (123, 5.70329487323760986328e-01) (124, 5.31999468803405761719e-01) (125, 5.07481634616851806641e-01) (126, 3.04377198219299316406e-01) (127, 9.05540436506271362305e-02) (128, 5.37138581275939941406e-01) (129, 5.77562153339385986328e-01) (130, 6.16331696510314941406e-01) (131, 5.64335882663726806641e-01) (132, 5.94047784805297851562e-01) (133, 5.83641290664672851562e-01) (134, 5.78978180885314941406e-01) (135, 5.99736273288726806641e-01) (136, 5.19798517227172851562e-01) (137, 5.04698395729064941406e-01) (138, 5.38475275039672851562e-01) (139, 5.00493109226226806641e-01) (140, 4.37986969947814941406e-01) (141, 6.14171087741851806641e-01) (142, 1.68207749724388122559e-01) (143, 3.50202381610870361328e-01) (144, 5.82579255104064941406e-01) (145, 5.93449652194976806641e-01) (146, 4.70455765724182128906e-01) (147, 3.77279460430145263672e-01) (148, 1.10368892550468444824e-01) (149, 6.25480890274047851562e-01) (150, 6.06730878353118896484e-01) (151, 1.35210201144218444824e-01) (152, 4.39409136772155761719e-01) (153, 4.74675238132476806641e-01) (154, 3.01313221454620361328e-01) (155, -1.07702493667602539062e-01) (156, 5.86375653743743896484e-01) (157, 4.59367632865905761719e-01) (158, 5.92930853366851806641e-01) (159, 4.36833441257476806641e-01) (160, 2.90992140769958496094e-01) (161, 7.32871741056442260742e-02) (162, 5.61375677585601806641e-01) (163, -7.44017362594604492188e-02) (164, -1.17834329605102539062e-01) (165, 2.37635239958763122559e-01) (166, -7.76671171188354492188e-02) (167, 3.51772844791412353516e-01) (168, 4.59215044975280761719e-01) (169, 4.58244562149047851562e-01) (170, 5.28087079524993896484e-01) (171, 4.84044134616851806641e-01) (172, 7.09434300661087036133e-02) (173, -6.79380893707275390625e-02) (174, -2.24810630083084106445e-01) (175, -6.62291049957275390625e-02) (176, 5.42540192604064941406e-01) (177, 4.69829022884368896484e-01) (178, 5.62559723854064941406e-01) (179, 4.86849784851074218750e-01) (180, 5.32377839088439941406e-01) (181, 5.23478925228118896484e-01) (182, 1.20396956801414489746e-01) (183, 1.60700425505638122559e-01) (184, -1.92919760942459106445e-01) (185, -1.92425400018692016602e-01) (186, -1.47704929113388061523e-01) (187, 3.51510405540466308594e-01) (188, 4.94658112525939941406e-01) (189, 3.93850058317184448242e-02) (190, -9.55992341041564941406e-02) (191, -1.10699295997619628906e-01) (192, 4.66789484024047851562e-01) (0, -6.65729403495788574219e-01) (1, -4.53587353229522705078e-01) (2, -8.64205360412597656250e-02) (3, -2.61511027812957763672e-01) (4, 1.46735280752182006836e-01) (5, -1.71813741326332092285e-01) (6, 2.33733132481575012207e-01) (7, 1.81535869836807250977e-01) (8, 1.31419897079467773438e-01) (9, 3.00609350204467773438e-01) (10, -2.60567665100097656250e-02) (11, 1.40294432640075683594e-03) (12, 1.79723128676414489746e-01) (13, -2.55047380924224853516e-01) (14, -1.24896034598350524902e-01) (15, -9.09859836101531982422e-02) (16, -1.08069717884063720703e-01) (17, -2.65093743801116943359e-01) (18, -1.53817236423492431641e-02) (19, -1.05634421110153198242e-01) (20, 1.70415267348289489746e-01) (21, -1.69463887810707092285e-01) (22, -1.53826698660850524902e-01) (23, 2.34808940440416336060e-02) (24, 2.19768285751342773438e-01) (25, -3.41729633510112762451e-03) (26, 4.52326610684394836426e-04) (27, -1.21601194143295288086e-01) (28, 1.14488750696182250977e-01) (29, 2.14482650160789489746e-01) (30, 2.64555871486663818359e-01) (31, -1.80828645825386047363e-01) (32, -6.31452023983001708984e-01) (33, -2.63213872909545898438e-01) (34, 1.89915999770164489746e-01) (35, 1.55736312270164489746e-01) (36, -5.18014132976531982422e-02) (37, -1.81451186537742614746e-01) (38, 1.10301733016967773438e-01) (39, 2.49516814947128295898e-01) (40, -4.03741002082824707031e-02) (41, 1.46918315440416336060e-02) (42, -3.02050530910491943359e-01) (43, -2.83257842063903808594e-01) (44, 2.96544402837753295898e-01) (45, -1.53443232178688049316e-01) (46, -1.51470735669136047363e-01) (47, -1.30273208022117614746e-01) (48, -2.28386819362640380859e-02) (49, 2.14879378676414489746e-01) (50, 1.08104467391967773438e-01) (51, 2.08629384636878967285e-01) (52, 1.97594225406646728516e-01) (53, 1.26715619117021560669e-02) (54, -1.56731605529785156250e-02) (55, 1.01245783269405364990e-01) (56, 1.31114721298217773438e-01) (57, 1.47154763340950012207e-01) (58, -1.44787386059761047363e-01) (59, -4.23594653606414794922e-01) (60, -5.21301865577697753906e-01) (61, 2.48314425349235534668e-01) (62, 1.27397686243057250977e-01) (63, 8.67470875382423400879e-02) (64, 2.27776095271110534668e-01) (65, 1.35027080774307250977e-01) (66, 1.59593731164932250977e-01) (67, -1.49609163403511047363e-01) (68, -5.33045053482055664062e-01) (69, -1.57671913504600524902e-01) (70, -2.73156523704528808594e-01) (71, -1.16094753146171569824e-01) (72, 2.36259981989860534668e-01) (73, -2.51305937767028808594e-01) (74, -2.78436064720153808594e-01) (75, -2.31499671936035156250e-02) (76, 2.13658675551414489746e-01) (77, -5.72931528091430664062e-01) (78, -5.31104087829589843750e-01) (79, -4.51115429401397705078e-01) (80, -2.86985814571380615234e-01) (81, -2.66216814517974853516e-01) (82, -6.35071396827697753906e-01) (83, -3.27189624309539794922e-01) (84, -2.30676040053367614746e-01) (85, -1.25555202364921569824e-01) (86, -2.20727309584617614746e-01) (87, 1.10968686640262603760e-01) (88, 1.00305847823619842529e-01) (89, 1.39655202627182006836e-01) (90, 2.00029522180557250977e-01) (91, 5.59759326279163360596e-03) (92, -1.44720241427421569824e-01) (93, -2.15496614575386047363e-01) (94, -1.28924354910850524902e-01) (95, -1.21210575103759765625e-01) (96, 2.71257549524307250977e-01) (97, -1.56585469841957092285e-01) (98, -2.96290814876556396484e-01) (99, -2.69288837909698486328e-01) (100, -2.81878411769866943359e-01) (101, -4.71734814345836639404e-03) (102, 2.66997277736663818359e-01) (103, 1.43150866031646728516e-01) (104, 2.96733617782592773438e-01) (105, 1.51109844446182250977e-01) (106, 1.58879622817039489746e-01) (107, 2.10150796920061111450e-02) (108, 1.07495792210102081299e-01) (109, -6.35376572608947753906e-01) (110, -4.12638843059539794922e-01) (111, 1.99309304356575012207e-01) (112, -2.25154682993888854980e-04) (113, -4.25791919231414794922e-01) (114, -1.95641860365867614746e-01) (115, -2.20416024327278137207e-01) (116, 9.67474468052387237549e-03) (117, -4.21686284244060516357e-03) (118, 2.59770721197128295898e-01) (119, -6.21883198618888854980e-04) (120, 1.95927962660789489746e-01) (121, 5.34186363220214843750e-02) (122, -2.76971220970153808594e-01) (123, 2.07561269402503967285e-01) (124, 2.75914520025253295898e-01) (125, -2.49505043029785156250e-02) (126, -2.23119899630546569824e-01) (127, -3.10258507728576660156e-01) (128, 2.92650371789932250977e-01) (129, 1.87187731266021728516e-01) (130, 2.68999248743057250977e-01) (131, 1.19005352258682250977e-01) (132, 2.07597881555557250977e-01) (133, 1.51280745863914489746e-01) (134, -1.97302028536796569824e-01) (135, -4.14514541625976562500e-03) (136, -2.93865740299224853516e-01) (137, -3.04571330547332763672e-01) (138, -4.06243354082107543945e-02) (139, -2.87615716457366943359e-01) (140, -1.15856721997261047363e-01) (141, 1.93828344345092773438e-01) (142, -1.85235366225242614746e-01) (143, -2.33685091137886047363e-01) (144, 1.88811257481575012207e-01) (145, 1.90154030919075012207e-01) (146, 1.37376934289932250977e-01) (147, 2.27379366755485534668e-01) (148, -4.69353795051574707031e-02) (149, 2.93346166610717773438e-01) (150, 1.54582738876342773438e-01) (151, -2.90899455547332763672e-01) (152, 4.73395362496376037598e-02) (153, 2.15257793664932250977e-01) (154, -2.66351103782653808594e-01) (155, -2.58971929550170898438e-01) (156, -1.85259804129600524902e-01) (157, -3.03051531314849853516e-01) (158, 1.27869307994842529297e-01) (159, -1.77471712231636047363e-01) (160, -2.97442376613616943359e-01) (161, -2.84648120403289794922e-01) (162, 4.33416850864887237549e-03) (163, -3.21282446384429931641e-02) (164, -1.82677999138832092285e-01) (165, -4.02031838893890380859e-02) (166, -1.19921669363975524902e-01) (167, -2.27673128247261047363e-01) (168, 1.60991430282592773438e-01) (169, -3.82317602634429931641e-02) (170, 5.23932427167892456055e-02) (171, 2.04314187169075012207e-01) (172, -3.64251136779785156250e-02) (173, -2.26214364171028137207e-01) (174, -1.63299337029457092285e-01) (175, -1.63830354809761047363e-01) (176, -2.56280414760112762451e-03) (177, 2.57787078619003295898e-01) (178, 2.80699670314788818359e-01) (179, -3.58819775283336639404e-03) (180, -4.04900610446929931641e-02) (181, -1.40643104910850524902e-01) (182, -1.39361366629600524902e-01) (183, -1.79925307631492614746e-01) (184, -2.74718999862670898438e-01) (185, -2.60912835597991943359e-01) (186, -2.30578377842903137207e-01) (187, 4.33478355407714843750e-02) (188, 2.94318217784166336060e-02) (189, -4.42696809768676757812e-02) (190, -2.39776387810707092285e-01) (191, -2.00201198458671569824e-01) (192, 4.30182516574859619141e-02) (0, -1.18884071707725524902e-01) (1, -1.10943391919136047363e-01) (2, -1.31049454212188720703e-01) (3, -6.84469938278198242188e-04) (4, 2.86687225103378295898e-01) (5, 3.37653160095214843750e-02) (6, 3.00560534000396728516e-01) (7, 1.09404519200325012207e-01) (8, 1.55254125595092773438e-01) (9, 1.29375219345092773438e-01) (10, -8.08602273464202880859e-02) (11, -2.56295204162597656250e-02) (12, 2.26091533899307250977e-01) (13, -1.58211886882781982422e-02) (14, -3.11166048049926757812e-02) (15, -2.05163344740867614746e-01) (16, 3.79935204982757568359e-02) (17, -1.28899917006492614746e-01) (18, 3.20425927639007568359e-02) (19, -5.35470247268676757812e-02) (20, 2.43871062994003295898e-01) (21, -2.17333748936653137207e-01) (22, -2.12585225701332092285e-01) (23, -3.85430455207824707031e-02) (24, 1.56987532973289489746e-01) (25, 1.22791193425655364990e-01) (26, 2.87224352359771728516e-01) (27, -1.38758167624473571777e-01) (28, 1.47514879703521728516e-01) (29, 3.71456146240234375000e-04) (30, 2.65636205673217773438e-01) (31, -4.70467805862426757812e-02) (32, -4.42936718463897705078e-01) (33, -2.31658712029457092285e-01) (34, 1.80492162704467773438e-01) (35, 1.09465554356575012207e-01) (36, -1.32825583219528198242e-01) (37, -2.48510524630546569824e-01) (38, 2.50725328922271728516e-01) (39, 2.83836901187896728516e-01) (40, 1.22826159000396728516e-01) (41, 2.57182836532592773438e-01) (42, -6.51864111423492431641e-02) (43, 1.24565660953521728516e-01) (44, -2.15417250990867614746e-01) (45, -4.74496036767959594727e-02) (46, -1.93523958325386047363e-01) (47, -2.49200209975242614746e-01) (48, 2.10394877940416336060e-02) (49, 2.66429662704467773438e-01) (50, 1.70634984970092773438e-01) (51, 1.69377669692039489746e-01) (52, 1.70573949813842773438e-01) (53, 1.27161324024200439453e-01) (54, 4.32074517011642456055e-02) (55, 1.09613709151744842529e-01) (56, 2.74669408798217773438e-01) (57, 1.39305651187896728516e-01) (58, -2.76116728782653808594e-01) (59, -2.29437038302421569824e-01) (60, -6.24567270278930664062e-01) (61, 1.40324935317039489746e-01) (62, 3.04265350103378295898e-01) (63, 1.50757491588592529297e-01) (64, 1.58598855137825012207e-01) (65, 1.53752669692039489746e-01) (66, 2.30290740728378295898e-01) (67, 2.89629131555557250977e-01) (68, -6.81006431579589843750e-01) (69, 1.12479031085968017578e-02) (70, -2.77337431907653808594e-01) (71, 8.18060860037803649902e-02) (72, 2.16075673699378967285e-01) (73, 8.97650793194770812988e-02) (74, -2.73797392845153808594e-01) (75, 5.49988821148872375488e-04) (76, 1.95592269301414489746e-01) (77, -4.64091479778289794922e-01) (78, -4.47740197181701660156e-01) (79, -3.38041722774505615234e-01) (80, -1.96532979607582092285e-01) (81, -1.87164083123207092285e-01) (82, -3.71415734291076660156e-01) (83, -1.37841567397117614746e-01) (84, -1.90765157341957092285e-01) (85, -1.46252229809761047363e-01) (86, -1.65618672966957092285e-01) (87, -3.82622890174388885498e-03) (88, 1.04297541081905364990e-01) (89, 1.51129681617021560669e-02) (90, 2.12352529168128967285e-01) (91, 4.92499321699142456055e-02) (92, -2.07934364676475524902e-01) (93, -2.58111357688903808594e-01) (94, -1.17278829216957092285e-01) (95, -6.85860812664031982422e-02) (96, 1.33781969547271728516e-01) (97, -1.54656752943992614746e-01) (98, -3.22633564472198486328e-01) (99, -2.72450447082519531250e-01) (100, -2.94311285018920898438e-01) (101, 3.69939394295215606689e-03) (102, 1.12328112125396728516e-01) (103, 1.43785625696182250977e-01) (104, 1.39952614903450012207e-01) (105, 2.21117168664932250977e-01) (106, 2.44725555181503295898e-01) (107, 9.14313271641731262207e-02) (108, -3.41790318489074707031e-02) (109, -4.67851281166076660156e-01) (110, -2.16717317700386047363e-01) (111, 1.34874492883682250977e-01) (112, 2.89232403039932250977e-01) (113, -1.69323518872261047363e-01) (114, -1.63946315646171569824e-01) (115, -2.57592558860778808594e-01) (116, 2.27973032742738723755e-02) (117, 1.25751405954360961914e-01) (118, -1.73791274428367614746e-01) (119, 1.84516031295061111450e-02) (120, 9.78461094200611114502e-03) (121, 8.48334357142448425293e-02) (122, -2.77972161769866943359e-01) (123, 1.65129616856575012207e-01) (124, 1.36717751622200012207e-01) (125, 1.00592710077762603760e-01) (126, -1.49133071303367614746e-01) (127, -3.07664513587951660156e-01) (128, 1.81755602359771728516e-01) (129, 2.17375710606575012207e-01) (130, 2.21391826868057250977e-01) (131, 2.26598128676414489746e-01) (132, 2.09520488977432250977e-01) (133, 2.14244619011878967285e-01) (134, 3.92951071262359619141e-02) (135, 2.23930880427360534668e-01) (136, -3.07653605937957763672e-01) (137, -2.04375997185707092285e-01) (138, -3.53508889675140380859e-02) (139, -1.67974635958671569824e-01) (140, -1.40234157443046569824e-01) (141, 1.40526354312896728516e-01) (142, -1.77813515067100524902e-01) (143, -3.03320109844207763672e-01) (144, 1.54161602258682250977e-01) (145, 2.81725078821182250977e-01) (146, 2.28978499770164489746e-01) (147, 1.30988080054521560669e-02) (148, 5.95465674996376037598e-02) (149, 2.18217998743057250977e-01) (150, 1.12108379602432250977e-01) (151, -2.55340337753295898438e-01) (152, 2.50311382114887237549e-03) (153, -4.73870337009429931641e-02) (154, 1.31848812103271484375e-01) (155, -2.26873561739921569824e-01) (156, -1.33849874138832092285e-01) (157, -2.54400432109832763672e-01) (158, 1.35309517383575439453e-01) (159, -2.46044710278511047363e-01) (160, -2.94891119003295898438e-01) (161, -1.80871352553367614746e-01) (162, 1.39166921377182006836e-01) (163, 1.42291933298110961914e-01) (164, -1.36181429028511047363e-01) (165, 9.13825109601020812988e-02) (166, -1.69036641716957092285e-01) (167, -2.93920695781707763672e-01) (168, 2.30528786778450012207e-01) (169, 1.50830745697021484375e-01) (170, -2.98357903957366943359e-01) (171, -1.72661840915679931641e-02) (172, 1.75177622586488723755e-02) (173, -1.17193385958671569824e-01) (174, -2.47094497084617614746e-01) (175, -1.09521254897117614746e-01) (176, 1.27606868743896484375e-01) (177, 1.82433083653450012207e-01) (178, 2.78008043766021728516e-01) (179, 4.06928062438964843750e-02) (180, -3.16338539123535156250e-02) (181, -2.43206575512886047363e-01) (182, -4.16347384452819824219e-03) (183, -2.44683608412742614746e-01) (184, -3.07336211204528808594e-01) (185, -5.66842257976531982422e-02) (186, -7.06185400485992431641e-02) (187, -4.19426858425140380859e-02) (188, -4.36334125697612762451e-03) (189, -9.04244482517242431641e-02) (190, -1.09216079115867614746e-01) (191, -1.16747841238975524902e-01) (192, 1.12885184586048126221e-01) (0, -1.45684659481048583984e-01) (1, -1.06799185276031494141e-01) (2, 4.52208161354064941406e-01) (3, 2.68073499202728271484e-01) (4, 5.50194025039672851562e-01) (5, -1.39813095331192016602e-01) (6, 3.09408366680145263672e-01) (7, 3.42251360416412353516e-01) (8, 9.79989886283874511719e-01) (9, 4.78215277194976806641e-01) (10, 5.54338335990905761719e-01) (11, 4.57469403743743896484e-01) (12, 6.12040936946868896484e-01) (13, 4.80949640274047851562e-01) (14, -5.85264563560485839844e-02) (15, -8.94529819488525390625e-02) (16, -6.26951456069946289062e-02) (17, -5.94359040260314941406e-02) (18, 1.87181636691093444824e-01) (19, 2.27263435721397399902e-01) (20, 5.28233587741851806641e-01) (21, -1.90179288387298583984e-01) (22, -3.86351346969604492188e-02) (23, 5.19371271133422851562e-01) (24, 5.98173737525939941406e-01) (25, 4.87889349460601806641e-01) (26, 4.43406939506530761719e-01) (27, 2.06015944480895996094e-01) (28, 3.94705057144165039062e-01) (29, 2.33971163630485534668e-01) (30, -1.89410239458084106445e-01) (31, -8.06639194488525390625e-02) (32, -8.59190225601196289062e-02) (33, -1.53881698846817016602e-01) (34, 6.24968171119689941406e-01) (35, 8.11532855033874511719e-01) (36, -2.98216342926025390625e-02) (37, -1.12743973731994628906e-01) (38, 6.17387592792510986328e-01) (39, 8.54361176490783691406e-01) (40, 5.40068268775939941406e-01) (41, 6.20201349258422851562e-01) (42, 4.86546576023101806641e-01) (43, 6.01957917213439941406e-01) (44, 5.08360505104064941406e-01) (45, 4.18868839740753173828e-01) (46, -1.21295034885406494141e-01) (47, -2.08215177059173583984e-01) (48, 4.79313910007476806641e-01) (49, 5.77556073665618896484e-01) (50, 4.33775544166564941406e-01) (51, 8.35837006568908691406e-01) (52, 4.82982099056243896484e-01) (53, 5.91533124446868896484e-01) (54, 5.86015522480010986328e-01) (55, 6.22136175632476806641e-01) (56, 6.15117132663726806641e-01) (57, 5.51982343196868896484e-01) (58, -2.26861417293548583984e-01) (59, -1.75329446792602539062e-01) (60, -6.24571442604064941406e-02) (61, 4.63658392429351806641e-01) (62, 5.41997015476226806641e-01) (63, 1.53275489807128906250e-01) (64, 9.53189373016357421875e-01) (65, 5.90739667415618896484e-01) (66, 4.57090973854064941406e-01) (67, -4.33104038238525390625e-02) (68, -1.07128739356994628906e-01) (69, -1.70245200395584106445e-01) (70, -1.25066995620727539062e-01) (71, 4.57023859024047851562e-01) (72, 5.54869294166564941406e-01) (73, 4.94835138320922851562e-01) (74, 1.60108402371406555176e-01) (75, 4.62932050228118896484e-01) (76, 5.71226716041564941406e-01) (77, -1.03436112403869628906e-01) (78, -1.96850448846817016602e-01) (79, -2.21050888299942016602e-01) (80, -2.21911460161209106445e-01) (81, 7.30430334806442260742e-02) (82, -1.12780630588531494141e-01) (83, -7.38767981529235839844e-02) (84, 3.17218959331512451172e-01) (85, 2.43482425808906555176e-01) (86, -1.21020376682281494141e-01) (87, 4.07443046569824218750e-01) (88, 4.70939874649047851562e-01) (89, 5.20128130912780761719e-01) (90, 4.51310992240905761719e-01) (91, 4.87468183040618896484e-01) (92, 1.42281338572502136230e-01) (93, 3.58338356018066406250e-01) (94, -9.00145173072814941406e-02) (95, -1.45342856645584106445e-01) (96, 7.72084742784500122070e-02) (97, -1.89202725887298583984e-01) (98, -6.62474036216735839844e-02) (99, -8.86290073394775390625e-02) (100, -2.24297940731048583984e-01) (101, 4.42650079727172851562e-01) (102, 9.26773309707641601562e-01) (103, 3.93752872943878173828e-01) (104, 4.80052411556243896484e-01) (105, 3.59585344791412353516e-01) (106, 5.00157415866851806641e-01) (107, 5.77354669570922851562e-01) (108, 4.39756989479064941406e-01) (109, -2.03820645809173583984e-01) (110, -3.31846475601196289062e-02) (111, 6.27391278743743896484e-01) (112, 4.47099566459655761719e-01) (113, -7.74473547935485839844e-02) (114, -1.19592130184173583984e-01) (115, -6.65342807769775390625e-02) (116, 4.61155951023101806641e-01) (117, 8.17972123622894287109e-02) (118, 3.46108794212341308594e-01) (119, 5.44102728366851806641e-01) (120, 5.28978228569030761719e-01) (121, 1.02492496371269226074e-01) (122, -1.97564542293548583984e-01) (123, 5.38188397884368896484e-01) (124, 5.28550982475280761719e-01) (125, 4.97618317604064941406e-01) (126, 2.54041492938995361328e-01) (127, 2.90752947330474853516e-03) (128, 4.51274335384368896484e-01) (129, 5.75822651386260986328e-01) (130, 6.16826117038726806641e-01) (131, 6.25187933444976806641e-01) (132, 5.80089032649993896484e-01) (133, 5.53068757057189941406e-01) (134, 4.88176226615905761719e-01) (135, 5.19462823867797851562e-01) (136, 6.19584858417510986328e-01) (137, 5.25834918022155761719e-01) (138, 5.21489202976226806641e-01) (139, 4.88450884819030761719e-01) (140, 5.34306585788726806641e-01) (141, 6.31053388118743896484e-01) (142, 2.40717515349388122559e-01) (143, 3.41028809547424316406e-01) (144, 5.51530718803405761719e-01) (145, 4.62797760963439941406e-01) (146, 4.32339310646057128906e-01) (147, 3.86202812194824218750e-01) (148, 8.66689234972000122070e-02) (149, 5.26945710182189941406e-01) (150, 5.92625677585601806641e-01) (151, 6.26576989889144897461e-02) (152, 4.33806061744689941406e-01) (153, 5.64897358417510986328e-01) (154, 2.99592018127441406250e-01) (155, -7.68431425094604492188e-02) (156, 6.19139313697814941406e-01) (157, 4.77739214897155761719e-01) (158, 6.09752118587493896484e-01) (159, 6.04631245136260986328e-01) (160, 3.30610096454620361328e-01) (161, 3.21799963712692260742e-02) (162, 6.31254792213439941406e-01) (163, -1.63049161434173583984e-01) (164, -1.96764975786209106445e-01) (165, 3.54877650737762451172e-01) (166, -1.08093112707138061523e-01) (167, 4.91403043270111083984e-01) (168, 5.58665692806243896484e-01) (169, 5.14726519584655761719e-01) (170, 4.64561700820922851562e-01) (171, 5.45665204524993896484e-01) (172, 6.63678348064422607422e-03) (173, -1.37750089168548583984e-01) (174, -2.23931729793548583984e-01) (175, -1.52837991714477539062e-01) (176, 4.83250677585601806641e-01) (177, 6.17991864681243896484e-01) (178, 4.68193292617797851562e-01) (179, 4.36459183692932128906e-01) (180, 6.33311688899993896484e-01) (181, 6.23466730117797851562e-01) (182, 1.55937716364860534668e-01) (183, 3.16022694110870361328e-01) (184, -1.50109708309173583984e-01) (185, -3.10789346694946289062e-02) (186, -4.94017004966735839844e-02) (187, 4.54635441303253173828e-01) (188, 4.56132769584655761719e-01) (189, 4.75820153951644897461e-02) (190, -2.13555753231048583984e-01) (191, -1.30120694637298583984e-01) (192, 5.05168378353118896484e-01) (0, -1.33984237909317016602e-01) (1, -1.82684183120727539062e-01) (2, 5.21269440650939941406e-01) (3, 2.79541969299316406250e-01) (4, 5.31230390071868896484e-01) (5, -4.33897376060485839844e-02) (6, 3.44021379947662353516e-01) (7, 4.39333915710449218750e-01) (8, 8.68326067924499511719e-01) (9, 6.27458393573760986328e-01) (10, 5.04728913307189941406e-01) (11, 5.89164972305297851562e-01) (12, 4.36644196510314941406e-01) (13, 5.43272614479064941406e-01) (14, -1.39538437128067016602e-01) (15, -2.07317978143692016602e-01) (16, -1.97173923254013061523e-01) (17, -1.79369956254959106445e-01) (18, 1.79863497614860534668e-01) (19, 6.22060447931289672852e-02) (20, 5.49601972103118896484e-01) (21, -2.82774567604064941406e-02) (22, -1.16100907325744628906e-01) (23, 5.68406879901885986328e-01) (24, 5.77263116836547851562e-01) (25, 5.43828070163726806641e-01) (26, 4.80626165866851806641e-01) (27, 2.25260317325592041016e-01) (28, 4.06307816505432128906e-01) (29, 1.05162575840950012207e-01) (30, -1.62890464067459106445e-01) (31, -5.48216104507446289062e-02) (32, -5.66831827163696289062e-02) (33, -1.30724966526031494141e-01) (34, 6.29454255104064941406e-01) (35, 8.56546282768249511719e-01) (36, -8.14329385757446289062e-02) (37, -8.48814249038696289062e-02) (38, 4.44737493991851806641e-01) (39, 9.49576020240783691406e-01) (40, 4.92442548274993896484e-01) (41, 4.39537286758422851562e-01) (42, 5.27586579322814941406e-01) (43, 4.96446490287780761719e-01) (44, 5.27812421321868896484e-01) (45, 4.84420597553253173828e-01) (46, -8.78416299819946289062e-02) (47, -1.04449331760406494141e-01) (48, 5.72349786758422851562e-01) (49, 5.35313665866851806641e-01) (50, 6.00151300430297851562e-01) (51, 8.66861224174499511719e-01) (52, 5.52080035209655761719e-01) (53, 5.39824128150939941406e-01) (54, 4.48143243789672851562e-01) (55, 4.93589997291564941406e-01) (56, 5.90855658054351806641e-01) (57, 4.63762164115905761719e-01) (58, -2.07031100988388061523e-01) (59, -2.16827243566513061523e-01) (60, -1.42449796199798583984e-01) (61, 4.68498468399047851562e-01) (62, 4.78441119194030761719e-01) (63, 5.42154014110565185547e-02) (64, 9.30026531219482421875e-01) (65, 4.89915728569030761719e-01) (66, 5.64512848854064941406e-01) (67, -1.62579208612442016602e-01) (68, -1.11932218074798583984e-01) (69, -1.07140958309173583984e-01) (70, -4.29624915122985839844e-02) (71, 4.44011151790618896484e-01) (72, 4.51298773288726806641e-01) (73, 4.61381793022155761719e-01) (74, 3.08869361877441406250e-01) (75, 5.23698687553405761719e-01) (76, 6.11039936542510986328e-01) (77, -2.18981772661209106445e-01) (78, -1.72515720129013061523e-01) (79, -9.52268838882446289062e-02) (80, -1.91699057817459106445e-01) (81, 4.67063635587692260742e-02) (82, -1.88891440629959106445e-01) (83, -1.93536221981048583984e-01) (84, 2.60279297828674316406e-01) (85, 3.41639161109924316406e-01) (86, -1.36285245418548583984e-01) (87, 3.31966936588287353516e-01) (88, 6.12315595149993896484e-01) (89, 5.97978413105010986328e-01) (90, 4.71501410007476806641e-01) (91, 4.86668646335601806641e-01) (92, 2.35821306705474853516e-03) (93, 1.94050058722496032715e-01) (94, -1.11852884292602539062e-01) (95, -3.49974036216735839844e-02) (96, 2.09654793143272399902e-01) (97, -7.08189606666564941406e-02) (98, -1.87011569738388061523e-01) (99, -7.41331577301025390625e-02) (100, -1.90527200698852539062e-01) (101, 5.07884442806243896484e-01) (102, 9.36392426490783691406e-01) (103, 3.33926200866699218750e-01) (104, 4.97239947319030761719e-01) (105, 4.60427701473236083984e-01) (106, 4.43828046321868896484e-01) (107, 5.97526788711547851562e-01) (108, 5.56480646133422851562e-01) (109, -1.77953958511352539062e-01) (110, -6.20481967926025390625e-02) (111, 5.37224054336547851562e-01) (112, 4.39580023288726806641e-01) (113, -9.59715247154235839844e-02) (114, -2.15496689081192016602e-01) (115, -2.00250089168548583984e-01) (116, 4.54228460788726806641e-01) (117, 2.43876039981842041016e-01) (118, 3.84701311588287353516e-01) (119, 5.07615923881530761719e-01) (120, 5.39158880710601806641e-01) (121, 5.40977269411087036133e-02) (122, -1.51635587215423583984e-01) (123, 4.56657648086547851562e-01) (124, 6.28904938697814941406e-01) (125, 4.55748200416564941406e-01) (126, 2.22706064581871032715e-01) (127, 5.98980486392974853516e-03) (128, 5.00255048274993896484e-01) (129, 5.97807526588439941406e-01) (130, 5.13121247291564941406e-01) (131, 5.42412042617797851562e-01) (132, 6.31498932838439941406e-01) (133, 6.25419855117797851562e-01) (134, 5.83812177181243896484e-01) (135, 6.17003083229064941406e-01) (136, 5.05913019180297851562e-01) (137, 6.33012592792510986328e-01) (138, 4.92375433444976806641e-01) (139, 6.25786066055297851562e-01) (140, 4.90562677383422851562e-01) (141, 6.02672040462493896484e-01) (142, 2.69056141376495361328e-01) (143, 3.33350539207458496094e-01) (144, 5.21800458431243896484e-01) (145, 4.72715973854064941406e-01) (146, 4.53188896179199218750e-01) (147, 4.33462381362915039062e-01) (148, 1.30595937371253967285e-01) (149, 5.92601239681243896484e-01) (150, 4.39573884010314941406e-01) (151, 1.81358858942985534668e-01) (152, 6.25132977962493896484e-01) (153, 4.70408856868743896484e-01) (154, 2.79242932796478271484e-01) (155, -2.08386093378067016602e-01) (156, 6.03538751602172851562e-01) (157, 6.19169831275939941406e-01) (158, 6.09691083431243896484e-01) (159, 5.07817327976226806641e-01) (160, 2.84986317157745361328e-01) (161, 1.58382400870323181152e-01) (162, 4.41209673881530761719e-01) (163, -1.28246933221817016602e-01) (164, -8.63341093063354492188e-02) (165, 2.52411842346191406250e-01) (166, -2.07195907831192016602e-01) (167, 4.68276798725128173828e-01) (168, 5.09196698665618896484e-01) (169, 5.60246527194976806641e-01) (170, 5.15080511569976806641e-01) (171, 4.97606158256530761719e-01) (172, 1.46089896559715270996e-01) (173, -1.59191757440567016602e-01) (174, -1.98498398065567016602e-01) (175, -6.80418610572814941406e-02) (176, 5.12260675430297851562e-01) (177, 4.80693280696868896484e-01) (178, 5.31218171119689941406e-01) (179, 4.93130326271057128906e-01) (180, 6.28746271133422851562e-01) (181, 5.32927155494689941406e-01) (182, 6.39821738004684448242e-02) (183, 2.11384043097496032715e-01) (184, -1.81109458208084106445e-01) (185, -1.44048929214477539062e-01) (186, -7.04222321510314941406e-02) (187, 4.30959939956665039062e-01) (188, 5.86900532245635986328e-01) (189, 1.77538082003593444824e-01) (190, -1.74572616815567016602e-01) (191, -2.20446616411209106445e-01) (192, 4.56730902194976806641e-01) (0, -2.91985869407653808594e-01) (1, -1.16314485669136047363e-01) (2, -8.53157937526702880859e-02) (3, -9.34517979621887207031e-02) (4, 1.31773903965950012207e-01) (5, -2.12946347892284393311e-03) (6, 2.11046367883682250977e-01) (7, 1.66899636387825012207e-01) (8, 1.23808816075325012207e-01) (9, 1.76836162805557250977e-01) (10, -1.11390024423599243164e-01) (11, -8.31795632839202880859e-02) (12, 3.39056998491287231445e-02) (13, -1.31402358412742614746e-01) (14, -1.45983681082725524902e-01) (15, -1.78436055779457092285e-01) (16, -1.19881629943847656250e-02) (17, -1.65124282240867614746e-01) (18, -1.13941282033920288086e-01) (19, -1.12104147672653198242e-01) (20, 1.90367653965950012207e-01) (21, 1.46955013275146484375e-01) (22, 3.77753227949142456055e-02) (23, -1.04668587446212768555e-02) (24, 2.67571032047271728516e-01) (25, 1.39105886220932006836e-01) (26, 2.96513885259628295898e-01) (27, -1.48694708943367004395e-01) (28, 2.45445773005485534668e-01) (29, 3.02647918462753295898e-01) (30, 2.66716539859771728516e-01) (31, 3.02847623825073242188e-02) (32, -4.36882019042968750000e-01) (33, -3.03362786769866943359e-01) (34, 2.74254381656646728516e-01) (35, 1.38011693954467773438e-01) (36, -8.53585302829742431641e-02) (37, -2.78008818626403808594e-01) (38, 1.63915023207664489746e-01) (39, 2.80058801174163818359e-01) (40, 1.97191387414932250977e-01) (41, 1.33739233016967773438e-01) (42, -1.60138800740242004395e-01) (43, 2.04204335808753967285e-01) (44, 1.24884702265262603760e-01) (45, 2.12810292840003967285e-01) (46, -1.47247090935707092285e-01) (47, -1.17623507976531982422e-02) (48, 2.22357828170061111450e-02) (49, 1.08161069452762603760e-01) (50, 2.41191625595092773438e-01) (51, 1.46135479211807250977e-01) (52, 1.18877172470092773438e-01) (53, 1.67925029993057250977e-01) (54, -2.39190161228179931641e-02) (55, 3.79767417907714843750e-02) (56, 2.60283410549163818359e-01) (57, 1.15355446934700012207e-01) (58, -2.38006368279457092285e-01) (59, -2.37383797764778137207e-01) (60, -6.35425448417663574219e-01) (61, 1.23528063297271728516e-01) (62, 2.63005584478378295898e-01) (63, -8.30954462289810180664e-02) (64, 2.64281213283538818359e-01) (65, 1.30901098251342773438e-01) (66, 1.96843490004539489746e-01) (67, -1.21590793132781982422e-02) (68, -3.31102013587951660156e-01) (69, -2.22826912999153137207e-01) (70, -1.73858419060707092285e-01) (71, -1.92297145724296569824e-01) (72, 2.00169906020164489746e-01) (73, -1.50091335177421569824e-01) (74, -1.57378926873207092285e-01) (75, 1.29059493541717529297e-01) (76, 2.42528289556503295898e-01) (77, -3.99430871009826660156e-01) (78, -4.66563403606414794922e-01) (79, -3.05254876613616943359e-01) (80, -2.42730483412742614746e-01) (81, -2.89312541484832763672e-01) (82, -4.30937230587005615234e-01) (83, -2.96862542629241943359e-01) (84, -2.94579863548278808594e-01) (85, -6.42952919006347656250e-02) (86, -3.77450138330459594727e-02) (87, 2.31024790555238723755e-02) (88, 1.80864483118057250977e-01) (89, 1.41423568129539489746e-01) (90, 2.86815404891967773438e-01) (91, 5.97601905465126037598e-02) (92, -2.94152617454528808594e-01) (93, -2.76299834251403808594e-01) (94, -2.09429726004600524902e-01) (95, -2.67089605331420898438e-01) (96, 2.77708947658538818359e-01) (97, -2.67968535423278808594e-01) (98, -2.95033454895019531250e-01) (99, -2.47444376349449157715e-01) (100, -3.05145025253295898438e-01) (101, -1.91521644592285156250e-02) (102, 2.35289528965950012207e-01) (103, 2.46556609869003295898e-01) (104, 2.12090060114860534668e-01) (105, 1.77141338586807250977e-01) (106, 2.18028798699378967285e-01) (107, 2.24236056208610534668e-01) (108, -4.49456274509429931641e-02) (109, -4.06797826290130615234e-01) (110, -2.32146993279457092285e-01) (111, 2.15941384434700012207e-01) (112, 2.27715060114860534668e-01) (113, -2.87957549095153808594e-01) (114, -1.24188020825386047363e-01) (115, 8.93621332943439483643e-03) (116, -3.27691249549388885498e-03) (117, 2.00568158179521560669e-02) (118, 7.50494971871376037598e-02) (119, -2.00920999050140380859e-02) (120, 2.13446635752916336060e-02) (121, 3.23920249938964843750e-02) (122, -1.77404567599296569824e-01) (123, 2.63872295618057250977e-01) (124, 2.48601287603378295898e-01) (125, 1.65117412805557250977e-01) (126, -1.40386745333671569824e-01) (127, -1.43969520926475524902e-01) (128, 1.45714342594146728516e-01) (129, 1.44804909825325012207e-01) (130, 2.86760479211807250977e-01) (131, 2.70885229110717773438e-01) (132, -4.73321080207824707031e-02) (133, 2.88915008306503295898e-01) (134, 7.75275304913520812988e-02) (135, 1.69914782047271728516e-01) (136, 9.06134620308876037598e-02) (137, 1.40888124704360961914e-01) (138, 3.50897759199142456055e-02) (139, -1.18414089083671569824e-01) (140, -2.80840814113616943359e-01) (141, 2.65971899032592773438e-01) (142, -1.48498311638832092285e-01) (143, -2.57684111595153808594e-01) (144, 2.65074670314788818359e-01) (145, 1.59929424524307250977e-01) (146, 1.98357164859771728516e-01) (147, 2.35466524958610534668e-01) (148, 4.98602837324142456055e-02) (149, 1.57365947961807250977e-01) (150, 1.46544411778450012207e-01) (151, -1.60687044262886047363e-01) (152, -3.61931920051574707031e-02) (153, 1.15460880100727081299e-01) (154, -2.04833760857582092285e-01) (155, -1.91790565848350524902e-01) (156, -2.50115394592285156250e-02) (157, -2.76971220970153808594e-01) (158, -1.79009437561035156250e-02) (159, -6.57281279563903808594e-03) (160, -1.14057272672653198242e-01) (161, -2.86004424095153808594e-01) (162, 3.24957817792892456055e-02) (163, 1.24329276382923126221e-01) (164, -1.55785903334617614746e-01) (165, 1.32874190807342529297e-01) (166, -2.28143081068992614746e-01) (167, -2.52837896347045898438e-01) (168, 2.36382052302360534668e-01) (169, 8.47418829798698425293e-02) (170, -1.04546546936035156250e-02) (171, 6.11151680350303649902e-02) (172, 5.24664893746376037598e-02) (173, -1.91991969943046569824e-01) (174, -1.33837684988975524902e-01) (175, -1.52856215834617614746e-01) (176, -2.06414163112640380859e-02) (177, 1.28807604312896728516e-01) (178, 2.33311980962753295898e-01) (179, -6.48126006126403808594e-03) (180, 1.47504329681396484375e-01) (181, -2.74969279766082763672e-01) (182, 1.87979638576507568359e-02) (183, -1.30480751395225524902e-01) (184, -1.97558388113975524902e-01) (185, 6.52838721871376037598e-02) (186, 1.88239086419343948364e-02) (187, 8.09027627110481262207e-02) (188, 9.26581211388111114502e-03) (189, 1.32257759571075439453e-01) (190, -2.76879668235778808594e-01) (191, -2.24383309483528137207e-01) (192, -4.00628149509429931641e-02) (0, -3.61632108688354492188e-02) (1, -1.56829684972763061523e-01) (2, 5.75035333633422851562e-01) (3, 2.56495118141174316406e-01) (4, 5.88945209980010986328e-01) (5, -1.92260593175888061523e-01) (6, 3.47677409648895263672e-01) (7, 4.67599332332611083984e-01) (8, 9.34768915176391601562e-01) (9, 5.67582905292510986328e-01) (10, 4.86503839492797851562e-01) (11, 5.75914204120635986328e-01) (12, 4.64750885963439941406e-01) (13, 5.40196478366851806641e-01) (14, -1.12908780574798583984e-01) (15, -1.22790396213531494141e-01) (16, -1.93804770708084106445e-01) (17, -2.10906833410263061523e-01) (18, 9.05812829732894897461e-02) (19, 2.26451620459556579590e-01) (20, 5.33439874649047851562e-01) (21, -1.07024997472763061523e-01) (22, -2.05816507339477539062e-01) (23, 5.38267731666564941406e-01) (24, 5.96953034400939941406e-01) (25, 6.02617084980010986328e-01) (26, 4.33757245540618896484e-01) (27, 1.28373146057128906250e-01) (28, 3.56503069400787353516e-01) (29, 2.34703585505485534668e-01) (30, -1.68285995721817016602e-01) (31, -1.59222275018692016602e-01) (32, -6.90306425094604492188e-02) (33, -5.51207065582275390625e-02) (34, 5.01182794570922851562e-01) (35, 9.02975678443908691406e-01) (36, -7.72276520729064941406e-02) (37, -1.12939298152923583984e-01) (38, 5.30113458633422851562e-01) (39, 8.25180292129516601562e-01) (40, 4.64354157447814941406e-01) (41, 5.45805573463439941406e-01) (42, 4.88273859024047851562e-01) (43, 5.39366364479064941406e-01) (44, 5.33720612525939941406e-01) (45, 3.34005534648895263672e-01) (46, -5.23741245269775390625e-02) (47, -1.21899247169494628906e-01) (48, 6.33061468601226806641e-01) (49, 5.02568304538726806641e-01) (50, 5.27018964290618896484e-01) (51, 9.70096111297607421875e-01) (52, 4.81675982475280761719e-01) (53, 5.60643255710601806641e-01) (54, 5.74199140071868896484e-01) (55, 4.97716009616851806641e-01) (56, 5.88054120540618896484e-01) (57, 5.74119806289672851562e-01) (58, -3.59434485435485839844e-02) (59, -6.06321692466735839844e-02) (60, -1.47357016801834106445e-01) (61, 4.75993573665618896484e-01) (62, 5.26335358619689941406e-01) (63, 1.53550148010253906250e-01) (64, 9.40677165985107421875e-01) (65, 6.18925690650939941406e-01) (66, 4.33873236179351806641e-01) (67, -1.57549887895584106445e-01) (68, -1.12994253635406494141e-01) (69, -1.05999588966369628906e-01) (70, -1.60400241613388061523e-01) (71, 4.98710870742797851562e-01) (72, 4.99034345149993896484e-01) (73, 5.25834918022155761719e-01) (74, 1.62989243865013122559e-01) (75, 6.07322931289672851562e-01) (76, 4.56761419773101806641e-01) (77, -1.49658054113388061523e-01) (78, -8.88243317604064941406e-02) (79, -1.54687345027923583984e-01) (80, -1.87951505184173583984e-01) (81, 1.58785209059715270996e-01) (82, -9.33592319488525390625e-02) (83, -1.80743247270584106445e-01) (84, 3.39545607566833496094e-01) (85, 3.03425014019012451172e-01) (86, -7.80271887779235839844e-02) (87, 4.99178886413574218750e-01) (88, 5.66179096698760986328e-01) (89, 5.25578558444976806641e-01) (90, 4.54179644584655761719e-01) (91, 4.43174958229064941406e-01) (92, 1.62681490182876586914e-02) (93, 3.10822486877441406250e-01) (94, -1.64062350988388061523e-01) (95, -9.36338901519775390625e-02) (96, 1.94035872817039489746e-01) (97, -1.37487649917602539062e-01) (98, -1.82153165340423583984e-01) (99, -9.59837436676025390625e-02) (100, -1.24780118465423583984e-01) (101, 5.75139105319976806641e-01) (102, 9.46042180061340332031e-01) (103, 4.56112504005432128906e-01) (104, 5.21251142024993896484e-01) (105, 4.84866142272949218750e-01) (106, 4.76616144180297851562e-01) (107, 5.94285786151885986328e-01) (108, 4.40361261367797851562e-01) (109, -1.30792081356048583984e-01) (110, -6.37999176979064941406e-02) (111, 6.14872992038726806641e-01) (112, 5.14647126197814941406e-01) (113, -2.20757901668548583984e-01) (114, -2.15582132339477539062e-01) (115, -5.69334626197814941406e-02) (116, 5.35899579524993896484e-01) (117, 2.41544544696807861328e-01) (118, 3.31045329570770263672e-01) (119, 4.48381304740905761719e-01) (120, 5.83909809589385986328e-01) (121, 9.93674844503402709961e-02) (122, -1.68029636144638061523e-01) (123, 5.73594868183135986328e-01) (124, 5.96891999244689941406e-01) (125, 6.29161298274993896484e-01) (126, 1.68952390551567077637e-01) (127, 7.18284398317337036133e-02) (128, 4.76683259010314941406e-01) (129, 4.83641266822814941406e-01) (130, 5.99547028541564941406e-01) (131, 4.83580231666564941406e-01) (132, 5.09953558444976806641e-01) (133, 5.74205219745635986328e-01) (134, 5.14909625053405761719e-01) (135, 5.01713812351226806641e-01) (136, 5.86711347103118896484e-01) (137, 4.79002594947814941406e-01) (138, 6.09776556491851806641e-01) (139, 5.46000897884368896484e-01) (140, 5.97270429134368896484e-01) (141, 6.26780927181243896484e-01) (142, 3.25153529644012451172e-01) (143, 2.96363234519958496094e-01) (144, 4.89030718803405761719e-01) (145, 4.51622247695922851562e-01) (146, 3.26412737369537353516e-01) (147, 4.28658902645111083984e-01) (148, 1.66234359145164489746e-01) (149, 6.24577581882476806641e-01) (150, 5.19346833229064941406e-01) (151, 3.77797633409500122070e-02) (152, 5.00090241432189941406e-01) (153, 5.18541216850280761719e-01) (154, 2.98810780048370361328e-01) (155, -1.08001559972763061523e-01) (156, 4.72185015678405761719e-01) (157, 5.62602460384368896484e-01) (158, 5.54918169975280761719e-01) (159, 4.74699616432189941406e-01) (160, 1.89350351691246032715e-01) (161, -7.83465802669525146484e-03) (162, 6.13487482070922851562e-01) (163, -2.08752304315567016602e-01) (164, -1.25445425510406494141e-01) (165, 3.26655030250549316406e-01) (166, -4.58250641822814941406e-02) (167, 4.67184245586395263672e-01) (168, 5.57383954524993896484e-01) (169, 5.99107563495635986328e-01) (170, 4.93724286556243896484e-01) (171, 5.39482355117797851562e-01) (172, 9.66209024190902709961e-02) (173, -6.80052042007446289062e-02) (174, -2.14306503534317016602e-01) (175, -5.22642731666564941406e-02) (176, 5.35087823867797851562e-01) (177, 4.76133942604064941406e-01) (178, 5.29875397682189941406e-01) (179, 4.11941349506378173828e-01) (180, 5.18748700618743896484e-01) (181, 5.51158368587493896484e-01) (182, 6.19802027940750122070e-02) (183, 3.07203114032745361328e-01) (184, -8.15550088882446289062e-02) (185, -1.73089444637298583984e-01) (186, -8.41551423072814941406e-02) (187, 4.50698673725128173828e-01) (188, 5.64122259616851806641e-01) (189, 2.20360323786735534668e-01) (190, -7.79051184654235839844e-02) (191, -3.17991971969604492188e-02) (192, 5.92497467994689941406e-01) (0, -2.17529073357582092285e-01) (1, -1.45715102553367614746e-01) (2, -9.68087315559387207031e-02) (3, -6.56214356422424316406e-03) (4, 2.53935754299163818359e-01) (5, 6.27753287553787231445e-02) (6, 1.82469710707664489746e-01) (7, 1.73155739903450012207e-01) (8, 2.86638408899307250977e-01) (9, 1.14061504602432250977e-01) (10, -1.11750125885009765625e-01) (11, 1.85110867023468017578e-02) (12, 1.76244124770164489746e-01) (13, 2.41350322961807250977e-01) (14, -2.40899428725242614746e-01) (15, -1.44000038504600524902e-01) (16, -2.11803987622261047363e-01) (17, -2.55694329738616943359e-01) (18, 6.27785921096801757812e-04) (19, -6.85128271579742431641e-02) (20, 1.50310277938842773438e-01) (21, 1.90349340438842773438e-01) (22, 1.28388106822967529297e-01) (23, 1.31476391106843948364e-02) (24, 1.66081771254539489746e-01) (25, 1.21452867984771728516e-01) (26, 1.34398415684700012207e-01) (27, -1.43653199076652526855e-01) (28, 1.83067858219146728516e-01) (29, -1.08093038201332092285e-01) (30, 3.90631705522537231445e-02) (31, -2.28368923068046569824e-01) (32, -3.05517375469207763672e-01) (33, -2.63757109642028808594e-01) (34, 1.47850573062896728516e-01) (35, 2.18279033899307250977e-01) (36, -6.43075108528137207031e-02) (37, -2.21838161349296569824e-01) (38, 1.22807845473289489746e-01) (39, 1.65135726332664489746e-01) (40, 2.24852517247200012207e-01) (41, 2.97600328922271728516e-01) (42, 1.87651589512825012207e-01) (43, 3.00707012414932250977e-01) (44, 1.87596663832664489746e-01) (45, -4.46785986423492431641e-02) (46, -1.97186067700386047363e-01) (47, -1.14007338881492614746e-01) (48, 1.28296554088592529297e-01) (49, 2.49815896153450012207e-01) (50, 2.74034649133682250977e-01) (51, 2.91356414556503295898e-01) (52, 2.29503393173217773438e-01) (53, 1.16278696805238723755e-02) (54, 9.85053107142448425293e-02) (55, 4.01984155178070068359e-02) (56, 2.25841283798217773438e-01) (57, 2.60063707828521728516e-01) (58, -1.23413950204849243164e-01) (59, -1.23956069350242614746e-01) (60, -6.91583871841430664062e-01) (61, 2.38304659724235534668e-01) (62, 2.83904016017913818359e-01) (63, -5.37924617528915405273e-02) (64, 1.37291491031646728516e-01) (65, -3.45269143581390380859e-02) (66, 1.47008284926414489746e-01) (67, -1.44177034497261047363e-01) (68, -3.81687939167022705078e-01) (69, -2.23223641514778137207e-01) (70, -2.05895766615867614746e-01) (71, -1.27563253045082092285e-01) (72, 2.93285131454467773438e-01) (73, -1.05034857988357543945e-02) (74, -1.32360622286796569824e-01) (75, 2.03282698988914489746e-01) (76, 1.35863259434700012207e-01) (77, -3.89988720417022705078e-01) (78, -3.46702575683593750000e-01) (79, -3.35520923137664794922e-01) (80, -2.48052760958671569824e-01) (81, -2.19549342989921569824e-01) (82, -6.68408870697021484375e-01) (83, -2.03130885958671569824e-01) (84, -1.20776161551475524902e-01) (85, -2.05224379897117614746e-01) (86, -2.61718511581420898438e-01) (87, 6.35443702340126037598e-02) (88, -1.52031928300857543945e-02) (89, -3.36541235446929931641e-02) (90, 1.58934548497200012207e-01) (91, -2.65313088893890380859e-02) (92, -2.66668498516082763672e-01) (93, -3.17210376262664794922e-01) (94, -2.39770278334617614746e-01) (95, -4.36227023601531982422e-02) (96, 1.53124004602432250977e-01) (97, -1.95489272475242614746e-01) (98, -1.27032265067100524902e-01) (99, -2.32942417263984680176e-01) (100, -1.69360145926475524902e-01) (101, -9.48420166969299316406e-03) (102, 2.90556848049163818359e-01) (103, 2.21855685114860534668e-01) (104, 2.81047582626342773438e-01) (105, 1.31212383508682250977e-01) (106, 2.36455291509628295898e-01) (107, 2.36632302403450012207e-01) (108, -1.38604193925857543945e-02) (109, -3.18760693073272705078e-01) (110, -3.74778747558593750000e-01) (111, 2.97038793563842773438e-01) (112, 5.99799156188964843750e-02) (113, -2.52215325832366943359e-01) (114, -4.11906421184539794922e-01) (115, -2.13464125990867614746e-01) (116, 2.52635717391967773438e-01) (117, 7.79364630579948425293e-02) (118, -1.11608669161796569824e-01) (119, -2.67205238342285156250e-02) (120, 1.28534615039825439453e-01) (121, -2.03411653637886047363e-01) (122, -1.13415315747261047363e-01) (123, 1.31090313196182250977e-01) (124, 2.53178924322128295898e-01) (125, 1.81316137313842773438e-01) (126, -2.24676296114921569824e-01) (127, -5.34082651138305664062e-01) (128, -2.07958772778511047363e-01) (129, -5.37653267383575439453e-03) (130, 1.16014629602432250977e-01) (131, 1.23894274234771728516e-01) (132, 1.64262920618057250977e-01) (133, 1.39732897281646728516e-01) (134, -2.55370855331420898438e-01) (135, 2.66765356063842773438e-01) (136, -2.54772722721099853516e-01) (137, -2.10406288504600524902e-01) (138, 1.34577095508575439453e-01) (139, -2.62273967266082763672e-01) (140, -2.16808870434761047363e-01) (141, 2.87608861923217773438e-01) (142, -1.88006386160850524902e-01) (143, -2.15167000889778137207e-01) (144, 1.64946511387825012207e-01) (145, 1.79784163832664489746e-01) (146, 1.75090551376342773438e-01) (147, -2.01110616326332092285e-01) (148, -1.08794942498207092285e-01) (149, 2.99229949712753295898e-01) (150, 1.52983620762825012207e-01) (151, -1.94616481661796569824e-01) (152, 6.51129707694053649902e-02) (153, 1.45954042673110961914e-01) (154, -3.82683873176574707031e-02) (155, -3.06512236595153808594e-01) (156, -1.44231960177421569824e-01) (157, -1.17687776684761047363e-01) (158, -2.25073024630546569824e-01) (159, -2.56847918033599853516e-01) (160, -1.41217902302742004395e-01) (161, -1.49487093091011047363e-01) (162, 6.50702491402626037598e-02) (163, 7.85468146204948425293e-02) (164, -1.09209999442100524902e-01) (165, -1.89977809786796569824e-01) (166, -2.86987066268920898438e-01) (167, -2.93359160423278808594e-01) (168, 2.77269512414932250977e-01) (169, -3.59443947672843933105e-04) (170, -1.14703163504600524902e-01) (171, 4.99701499938964843750e-02) (172, 3.56696099042892456055e-02) (173, -1.54797151684761047363e-01) (174, -1.14239290356636047363e-01) (175, -2.80010759830474853516e-01) (176, -9.66730713844299316406e-03) (177, 1.34129866957664489746e-01) (178, 1.22331768274307250977e-01) (179, -4.76616919040679931641e-02) (180, -2.90581732988357543945e-02) (181, -1.77612081170082092285e-01) (182, 2.15628445148468017578e-02) (183, -6.99654519557952880859e-02) (184, -1.23577669262886047363e-01) (185, -5.67818880081176757812e-02) (186, -8.29476416110992431641e-02) (187, 1.01263988763093948364e-02) (188, -3.75603735446929931641e-02) (189, -1.11541524529457092285e-01) (190, -2.50671148300170898438e-01) (191, -2.42937996983528137207e-01) (192, -2.76848822832107543945e-02) (0, -2.34423592686653137207e-01) (1, -2.08141878247261047363e-01) (2, -1.74615249037742614746e-01) (3, -1.33471474051475524902e-01) (4, 4.18707877397537231445e-02) (5, 9.08759161829948425293e-02) (6, 2.87016808986663818359e-01) (7, 1.70195534825325012207e-01) (8, 2.31725066900253295898e-01) (9, 1.65422588586807250977e-01) (10, -1.11353397369384765625e-01) (11, 1.08023583889007568359e-02) (12, 1.48100808262825012207e-01) (13, 1.91960677504539489746e-01) (14, -1.28503188490867614746e-01) (15, -1.62255629897117614746e-01) (16, -1.01831912994384765625e-01) (17, -1.84823274612426757812e-02) (18, -2.29928195476531982422e-02) (19, 1.48227810859680175781e-03) (20, 2.18944326043128967285e-01) (21, 6.74078986048698425293e-02) (22, -2.44921639561653137207e-01) (23, 6.69989660382270812988e-02) (24, 2.21611544489860534668e-01) (25, -3.53203713893890380859e-02) (26, 1.15819305181503295898e-01) (27, -7.18758702278137207031e-02) (28, 2.42571026086807250977e-01) (29, -3.30575108528137207031e-02) (30, 1.94084703922271728516e-01) (31, -6.70846104621887207031e-02) (32, -4.28178429603576660156e-01) (33, -2.91656255722045898438e-01) (34, 2.62895733118057250977e-01) (35, 1.89177468419075012207e-01) (36, -5.52987158298492431641e-02) (37, -1.23492226004600524902e-01) (38, 2.80034393072128295898e-01) (39, 1.51396706700325012207e-01) (40, 1.48003160953521728516e-01) (41, 2.15044170618057250977e-01) (42, -1.36828407645225524902e-01) (43, -3.07964861392974853516e-01) (44, 2.77415990829467773438e-01) (45, 1.91197738051414489746e-01) (46, -1.72112807631492614746e-01) (47, -2.40612581372261047363e-01) (48, 1.14911563694477081299e-01) (49, 2.11662814021110534668e-01) (50, 2.97154754400253295898e-01) (51, 1.74852520227432250977e-01) (52, 1.84056624770164489746e-01) (53, 4.21515405178070068359e-02) (54, 9.65887978672981262207e-02) (55, -3.94768714904785156250e-02) (56, 2.70653307437896728516e-01) (57, 1.59752428531646728516e-01) (58, -1.26104518771171569824e-01) (59, -2.23119899630546569824e-01) (60, -6.83881282806396484375e-01) (61, 2.53185033798217773438e-01) (62, 1.19316637516021728516e-01) (63, -8.23203027248382568359e-02) (64, 1.36144027113914489746e-01) (65, 2.42888405919075012207e-01) (66, 1.27855449914932250977e-01) (67, -2.02142104506492614746e-01) (68, -4.04191613197326660156e-01) (69, -2.38445833325386047363e-01) (70, -1.96105733513832092285e-01) (71, -3.66875678300857543945e-02) (72, 2.65318810939788818359e-01) (73, -2.07586452364921569824e-01) (74, -2.70922601222991943359e-01) (75, 1.97203591465950012207e-01) (76, 1.23613506555557250977e-01) (77, -4.74375903606414794922e-01) (78, -3.92320275306701660156e-01) (79, -2.39422395825386047363e-01) (80, -1.16363301873207092285e-01) (81, -1.08654573559761047363e-01) (82, -3.46226513385772705078e-01) (83, -2.48931661248207092285e-01) (84, -1.91003188490867614746e-01) (85, 1.88396215438842773438e-01) (86, -1.05146139860153198242e-01) (87, 1.03333182632923126221e-01) (88, -4.14362363517284393311e-03) (89, 3.08478344231843948364e-02) (90, 1.05498269200325012207e-01) (91, 1.14246271550655364990e-01) (92, -1.32446065545082092285e-01) (93, -2.07098171114921569824e-01) (94, -1.69347926974296569824e-01) (95, -1.54732763767242431641e-02) (96, 2.84312963485717773438e-01) (97, -1.37646272778511047363e-01) (98, -3.74220490455627441406e-01) (99, -3.31807136535644531250e-01) (100, -2.26366952061653137207e-01) (101, -1.21270120143890380859e-02) (102, 2.22899392247200012207e-01) (103, 1.41332015395164489746e-01) (104, 2.03838124871253967285e-01) (105, 1.26866683363914489746e-01) (106, 2.34245821833610534668e-01) (107, 1.58373028039932250977e-01) (108, -3.27752232551574707031e-02) (109, -4.76029992103576660156e-01) (110, -1.12458139657974243164e-01) (111, 3.01518768072128295898e-01) (112, 1.61021947860717773438e-01) (113, -1.72738134860992431641e-02) (114, -2.48345717787742614746e-01) (115, -1.76067903637886047363e-01) (116, 2.81744915992021560669e-02) (117, -4.51531410217285156250e-02) (118, -1.82128682732582092285e-01) (119, -3.73284369707107543945e-02) (120, 1.51367858052253723145e-01) (121, 1.41864687204360961914e-01) (122, -4.75274026393890380859e-02) (123, 2.71696984767913818359e-01) (124, 2.45158910751342773438e-01) (125, 2.07603976130485534668e-01) (126, -1.41192421317100524902e-01) (127, -4.67222630977630615234e-01) (128, 2.43230193853378295898e-01) (129, 1.57787084579467773438e-01) (130, 2.05931618809700012207e-01) (131, 1.14885479211807250977e-01) (132, 8.85138586163520812988e-02) (133, 7.84368999302387237549e-03) (134, -1.85351356863975524902e-01) (135, 2.84538805484771728516e-01) (136, -2.64229774475097656250e-02) (137, 4.63995933532714843750e-02) (138, 1.39879375696182250977e-01) (139, 9.20322537422180175781e-03) (140, -9.68104600906372070312e-03) (141, 2.67143785953521728516e-01) (142, -2.94659197330474853516e-01) (143, -2.29455336928367614746e-01) (144, 2.25645974278450012207e-01) (145, 1.98729470372200012207e-01) (146, 2.51329571008682250977e-01) (147, 2.75523900985717773438e-01) (148, 1.11377619206905364990e-01) (149, 1.91930159926414489746e-01) (150, 1.93053200840950012207e-01) (151, -2.73333489894866943359e-01) (152, 2.41728737950325012207e-01) (153, 7.62641057372093200684e-02) (154, -2.85522222518920898438e-01) (155, -2.82146990299224853516e-01) (156, -1.35320827364921569824e-01) (157, -1.09289333224296569824e-01) (158, -3.87444496154785156250e-02) (159, -1.57879427075386047363e-01) (160, -3.06786894798278808594e-01) (161, -1.54736116528511047363e-01) (162, 4.47272360324859619141e-02) (163, 7.90472514927387237549e-03) (164, -2.82458245754241943359e-01) (165, -2.74181902408599853516e-01) (166, -2.44054958224296569824e-01) (167, -2.28313997387886047363e-01) (168, 1.06401592493057250977e-01) (169, 1.22138120234012603760e-01) (170, 3.11942771077156066895e-04) (171, -3.60161811113357543945e-02) (172, 1.26343429088592529297e-01) (173, -2.25054696202278137207e-01) (174, -1.08489766716957092285e-01) (175, -1.83074727654457092285e-01) (176, -4.04168069362640380859e-02) (177, 1.38249740004539489746e-01) (178, 1.98058083653450012207e-01) (179, 8.96735265851020812988e-02) (180, 7.89618566632270812988e-02) (181, -2.02453389763832092285e-01) (182, -2.26238802075386047363e-01) (183, -2.54235625267028808594e-01) (184, -2.91406035423278808594e-01) (185, -2.58691191673278808594e-01) (186, -2.93597161769866943359e-01) (187, 1.01196952164173126221e-01) (188, 5.03851920366287231445e-02) (189, 2.73125231266021728516e-01) (190, -1.26415804028511047363e-01) (191, -2.63036906719207763672e-01) (192, 7.10272863507270812988e-02) (0, -3.59352350234985351562e-01) (1, -2.25939705967903137207e-01) (2, 2.47691869735717773438e-01) (3, -7.32247531414031982422e-02) (4, 1.11375957727432250977e-01) (5, -2.23284676671028137207e-01) (6, 2.62975066900253295898e-01) (7, 1.92027807235717773438e-01) (8, 2.37340301275253295898e-01) (9, 2.74577856063842773438e-01) (10, -2.13738381862640380859e-02) (11, 2.90001451969146728516e-01) (12, 6.72369971871376037598e-02) (13, -2.07207649946212768555e-02) (14, -1.81945577263832092285e-01) (15, -1.13683864474296569824e-01) (16, -1.29528596997261047363e-01) (17, -2.06353530287742614746e-01) (18, -8.33626687526702880859e-02) (19, -6.62911534309387207031e-02) (20, 2.65691131353378295898e-01) (21, 6.53143413364887237549e-03) (22, 3.09393871575593948364e-02) (23, 8.84466059505939483643e-03) (24, 2.69865930080413818359e-01) (25, -1.83770209550857543945e-02) (26, -2.23687142133712768555e-02) (27, 2.01530978083610534668e-01) (28, 2.24034652113914489746e-01) (29, -3.98980081081390380859e-02) (30, 2.88133770227432250977e-01) (31, -6.46798312664031982422e-02) (32, -2.64410197734832763672e-01) (33, -2.83379912376403808594e-01) (34, 1.60661846399307250977e-01) (35, 1.22893288731575012207e-01) (36, -2.19552218914031982422e-02) (37, -1.73577651381492614746e-01) (38, 1.20177224278450012207e-01) (39, 1.42027810215950012207e-01) (40, 2.00652077794075012207e-01) (41, 2.10381075739860534668e-01) (42, 9.71320196986198425293e-02) (43, 1.47356182336807250977e-01) (44, 2.37621068954467773438e-01) (45, 2.26915508508682250977e-01) (46, -2.54156291484832763672e-01) (47, -2.92150676250457763672e-01) (48, 1.29614919424057006836e-01) (49, 3.30573022365570068359e-02) (50, 2.22655251622200012207e-01) (51, 2.41484597325325012207e-01) (52, 1.88994362950325012207e-01) (53, 1.09961606562137603760e-01) (54, 5.37421256303787231445e-02) (55, 8.17938819527626037598e-02) (56, 2.05144271254539489746e-01) (57, -2.09527015686035156250e-02) (58, -2.81701445579528808594e-01) (59, -2.04089149832725524902e-01) (60, -6.04028940200805664062e-01) (61, 1.21837377548217773438e-01) (62, 1.31621316075325012207e-01) (63, 1.49213314056396484375e-01) (64, 2.33067840337753295898e-01) (65, 2.86534637212753295898e-01) (66, 1.66197732090950012207e-01) (67, 1.70610576868057250977e-01) (68, -3.53123486042022705078e-01) (69, -1.39208778738975524902e-01) (70, -2.73840129375457763672e-01) (71, 1.04877375066280364990e-01) (72, 1.10747292637825012207e-01) (73, 2.04718578606843948364e-02) (74, -1.29089131951332092285e-01) (75, 1.13104917109012603760e-01) (76, 2.46501684188842773438e-01) (77, -3.68357837200164794922e-01) (78, -2.46520772576332092285e-01) (79, -2.45690688490867614746e-01) (80, -2.00079128146171569824e-01) (81, -2.63732671737670898438e-01) (82, -4.20994579792022705078e-01) (83, -2.28509292006492614746e-01) (84, -2.68823027610778808594e-01) (85, -1.02242529392242431641e-02) (86, -6.54793977737426757812e-02) (87, 1.17322452366352081299e-01) (88, 6.88849464058876037598e-02) (89, 1.77831038832664489746e-01) (90, 1.09575420618057250977e-01) (91, -3.38067114353179931641e-02) (92, -2.49694600701332092285e-01) (93, -1.64593294262886047363e-01) (94, -2.88775384426116943359e-01) (95, -1.69457778334617614746e-01) (96, -2.77947485446929931641e-02) (97, -1.88616737723350524902e-01) (98, -3.25685322284698486328e-01) (99, -3.94478082656860351562e-01) (100, -4.21083271503448486328e-01) (101, 1.02124698460102081299e-01) (102, 2.84868389368057250977e-01) (103, 2.97032684087753295898e-01) (104, 1.44640117883682250977e-01) (105, 2.82622277736663818359e-01) (106, 1.26970440149307250977e-01) (107, 2.16978982090950012207e-01) (108, 3.10370493680238723755e-02) (109, -6.47522568702697753906e-01) (110, -2.24621370434761047363e-01) (111, 2.85704553127288818359e-01) (112, 3.25995385646820068359e-02) (113, -1.95116981863975524902e-01) (114, -3.04260015487670898438e-01) (115, -1.98302999138832092285e-01) (116, 7.41217657923698425293e-02) (117, 1.51477724313735961914e-01) (118, -2.91912615299224853516e-01) (119, 1.01227469742298126221e-01) (120, 5.95587715506553649902e-02) (121, 9.13092568516731262207e-02) (122, 4.52704429626464843750e-02) (123, 1.80382311344146728516e-01) (124, 2.26537093520164489746e-01) (125, 2.35222384333610534668e-01) (126, -1.21441438794136047363e-01) (127, -2.11663588881492614746e-01) (128, -2.43463926017284393311e-03) (129, 6.50397315621376037598e-02) (130, 1.27049788832664489746e-01) (131, 2.03838124871253967285e-01) (132, 9.27191749215126037598e-02) (133, 1.50859594345092773438e-01) (134, 1.48895919322967529297e-01) (135, 1.20703794062137603760e-01) (136, -4.23577427864074707031e-02) (137, 1.03705395013093948364e-02) (138, -2.67891213297843933105e-04) (139, -2.85888433456420898438e-01) (140, -2.94866740703582763672e-01) (141, 1.15796573460102081299e-01) (142, -2.72784173488616943359e-01) (143, -2.34826430678367614746e-01) (144, 1.40593484044075012207e-01) (145, 2.18645244836807250977e-01) (146, 2.13670879602432250977e-01) (147, 2.73363262414932250977e-01) (148, 1.10059268772602081299e-01) (149, 1.78911358118057250977e-01) (150, 3.03990691900253295898e-01) (151, -1.84795930981636047363e-01) (152, 1.48120790719985961914e-01) (153, 2.09557101130485534668e-01) (154, 5.94061836600303649902e-02) (155, -2.14971706271171569824e-01) (156, -1.93377479910850524902e-01) (157, -1.83929219841957092285e-01) (158, 8.69879797101020812988e-02) (159, 5.36993965506553649902e-02) (160, 1.12909607589244842529e-01) (161, -1.66894301772117614746e-01) (162, 6.85919746756553649902e-02) (163, 1.18939884006977081299e-01) (164, -3.75664830207824707031e-02) (165, -1.69671028852462768555e-02) (166, -2.96355962753295898438e-01) (167, -1.55523464083671569824e-01) (168, 2.48045876622200012207e-01) (169, -6.01129233837127685547e-03) (170, 6.38495460152626037598e-02) (171, 1.27789974212646484375e-01) (172, 9.65887978672981262207e-02) (173, -1.95464864373207092285e-01) (174, -2.94079363346099853516e-01) (175, 5.21430000662803649902e-02) (176, 9.77789834141731262207e-02) (177, 2.84044414758682250977e-01) (178, 1.33324205875396728516e-01) (179, 1.04511164128780364990e-01) (180, 5.68244010210037231445e-02) (181, -1.55993446707725524902e-01) (182, -3.73184680938720703125e-04) (183, -1.21764913201332092285e-01) (184, -1.70654073357582092285e-01) (185, 1.05487726628780364990e-01) (186, 9.51972082257270812988e-02) (187, -1.84685736894607543945e-02) (188, -4.39629554748535156250e-02) (189, 3.22882682085037231445e-02) (190, -2.56988286972045898438e-01) (191, -2.67065227031707763672e-01) (192, 1.06189630925655364990e-01) (193, -2.66237199306488037109e-01) (194, -6.46160721778869628906e-01) (195, -7.10107326507568359375e-01) (196, -3.13490629196166992188e-01) (197, -2.71272599697113037109e-01) (198, -6.95019364356994628906e-01) (199, -2.86500871181488037109e-01) (200, -7.05224514007568359375e-01) (201, -6.61816239356994628906e-01) (202, -2.06245705485343933105e-01) (203, -3.45680534839630126953e-01) 
