FANN_FLO_2.1
num_layers=3
learning_rate=0.700000
connection_rate=1.000000
network_type=0
learning_momentum=0.000000
training_algorithm=2
train_error_function=1
train_stop_function=0
cascade_output_change_fraction=0.010000
quickprop_decay=-0.000100
quickprop_mu=1.750000
rprop_increase_factor=1.200000
rprop_decrease_factor=0.500000
rprop_delta_min=0.000000
rprop_delta_max=50.000000
rprop_delta_zero=0.100000
cascade_output_stagnation_epochs=12
cascade_candidate_change_fraction=0.010000
cascade_candidate_stagnation_epochs=12
cascade_max_out_epochs=150
cascade_min_out_epochs=50
cascade_max_cand_epochs=150
cascade_min_cand_epochs=50
cascade_num_candidate_groups=2
bit_fail_limit=3.49999994039535522461e-01
cascade_candidate_limit=1.00000000000000000000e+03
cascade_weight_multiplier=4.00000005960464477539e-01
cascade_activation_functions_count=10
cascade_activation_functions=3 5 7 8 10 11 14 15 16 17 
cascade_activation_steepnesses_count=4
cascade_activation_steepnesses=2.50000000000000000000e-01 5.00000000000000000000e-01 7.50000000000000000000e-01 1.00000000000000000000e+00 
layer_sizes=193 11 2 
scale_included=0
neurons (num_inputs, activation_function, activation_steepness)=(0, 0, 0.00000000000000000000e+00) (0, 0, 0.00000000000000000000e+00) (0, 0, 0.00000000000000000000e+00) (0, 0, 0.00000000000000000000e+00) (0, 0, 0.00000000000000000000e+00) (0, 0, 0.00000000000000000000e+00) (0, 0, 0.00000000000000000000e+00) (0, 0, 0.00000000000000000000e+00) (0, 0, 0.00000000000000000000e+00) (0, 0, 0.00000000000000000000e+00) (0, 0, 0.00000000000000000000e+00) (0, 0, 0.00000000000000000000e+00) (0, 0, 0.00000000000000000000e+00) (0, 0, 0.00000000000000000000e+00) (0, 0, 0.00000000000000000000e+00) (0, 0, 0.00000000000000000000e+00) (0, 0, 0.00000000000000000000e+00) (0, 0, 0.00000000000000000000e+00) (0, 0, 0.00000000000000000000e+00) (0, 0, 0.00000000000000000000e+00) (0, 0, 0.00000000000000000000e+00) (0, 0, 0.00000000000000000000e+00) (0, 0, 0.00000000000000000000e+00) (0, 0, 0.00000000000000000000e+00) (0, 0, 0.00000000000000000000e+00) (0, 0, 0.00000000000000000000e+00) (0, 0, 0.00000000000000000000e+00) (0, 0, 0.00000000000000000000e+00) (0, 0, 0.00000000000000000000e+00) (0, 0, 0.00000000000000000000e+00) (0, 0, 0.00000000000000000000e+00) (0, 0, 0.00000000000000000000e+00) (0, 0, 0.00000000000000000000e+00) (0, 0, 0.00000000000000000000e+00) (0, 0, 0.00000000000000000000e+00) (0, 0, 0.00000000000000000000e+00) (0, 0, 0.00000000000000000000e+00) (0, 0, 0.00000000000000000000e+00) (0, 0, 0.00000000000000000000e+00) (0, 0, 0.00000000000000000000e+00) (0, 0, 0.00000000000000000000e+00) (0, 0, 0.00000000000000000000e+00) (0, 0, 0.00000000000000000000e+00) (0, 0, 0.00000000000000000000e+00) (0, 0, 0.00000000000000000000e+00) (0, 0, 0.00000000000000000000e+00) (0, 0, 0.00000000000000000000e+00) (0, 0, 0.00000000000000000000e+00) (0, 0, 0.00000000000000000000e+00) (0, 0, 0.00000000000000000000e+00) (0, 0, 0.00000000000000000000e+00) (0, 0, 0.00000000000000000000e+00) (0, 0, 0.00000000000000000000e+00) (0, 0, 0.00000000000000000000e+00) (0, 0, 0.00000000000000000000e+00) (0, 0, 0.00000000000000000000e+00) (0, 0, 0.00000000000000000000e+00) (0, 0, 0.00000000000000000000e+00) (0, 0, 0.00000000000000000000e+00) (0, 0, 0.00000000000000000000e+00) (0, 0, 0.00000000000000000000e+00) (0, 0, 0.00000000000000000000e+00) (0, 0, 0.00000000000000000000e+00) (0, 0, 0.00000000000000000000e+00) (0, 0, 0.00000000000000000000e+00) (0, 0, 0.00000000000000000000e+00) (0, 0, 0.00000000000000000000e+00) (0, 0, 0.00000000000000000000e+00) (0, 0, 0.00000000000000000000e+00) (0, 0, 0.00000000000000000000e+00) (0, 0, 0.00000000000000000000e+00) (0, 0, 0.00000000000000000000e+00) (0, 0, 0.00000000000000000000e+00) (0, 0, 0.00000000000000000000e+00) (0, 0, 0.00000000000000000000e+00) (0, 0, 0.00000000000000000000e+00) (0, 0, 0.00000000000000000000e+00) (0, 0, 0.00000000000000000000e+00) (0, 0, 0.00000000000000000000e+00) (0, 0, 0.00000000000000000000e+00) (0, 0, 0.00000000000000000000e+00) (0, 0, 0.00000000000000000000e+00) (0, 0, 0.00000000000000000000e+00) (0, 0, 0.00000000000000000000e+00) (0, 0, 0.00000000000000000000e+00) (0, 0, 0.00000000000000000000e+00) (0, 0, 0.00000000000000000000e+00) (0, 0, 0.00000000000000000000e+00) (0, 0, 0.00000000000000000000e+00) (0, 0, 0.00000000000000000000e+00) (0, 0, 0.00000000000000000000e+00) (0, 0, 0.00000000000000000000e+00) (0, 0, 0.00000000000000000000e+00) (0, 0, 0.00000000000000000000e+00) (0, 0, 0.00000000000000000000e+00) (0, 0, 0.00000000000000000000e+00) (0, 0, 0.00000000000000000000e+00) (0, 0, 0.00000000000000000000e+00) (0, 0, 0.00000000000000000000e+00) (0, 0, 0.00000000000000000000e+00) (0, 0, 0.00000000000000000000e+00) (0, 0, 0.00000000000000000000e+00) (0, 0, 0.00000000000000000000e+00) (0, 0, 0.00000000000000000000e+00) (0, 0, 0.00000000000000000000e+00) (0, 0, 0.00000000000000000000e+00) (0, 0, 0.00000000000000000000e+00) (0, 0, 0.00000000000000000000e+00) (0, 0, 0.00000000000000000000e+00) (0, 0, 0.00000000000000000000e+00) (0, 0, 0.00000000000000000000e+00) (0, 0, 0.00000000000000000000e+00) (0, 0, 0.00000000000000000000e+00) (0, 0, 0.00000000000000000000e+00) (0, 0, 0.00000000000000000000e+00) (0, 0, 0.00000000000000000000e+00) (0, 0, 0.00000000000000000000e+00) (0, 0, 0.00000000000000000000e+00) (0, 0, 0.00000000000000000000e+00) (0, 0, 0.00000000000000000000e+00) (0, 0, 0.00000000000000000000e+00) (0, 0, 0.00000000000000000000e+00) (0, 0, 0.00000000000000000000e+00) (0, 0, 0.00000000000000000000e+00) (0, 0, 0.00000000000000000000e+00) (0, 0, 0.00000000000000000000e+00) (0, 0, 0.00000000000000000000e+00) (0, 0, 0.00000000000000000000e+00) (0, 0, 0.00000000000000000000e+00) (0, 0, 0.00000000000000000000e+00) (0, 0, 0.00000000000000000000e+00) (0, 0, 0.00000000000000000000e+00) (0, 0, 0.00000000000000000000e+00) (0, 0, 0.00000000000000000000e+00) (0, 0, 0.00000000000000000000e+00) (0, 0, 0.00000000000000000000e+00) (0, 0, 0.00000000000000000000e+00) (0, 0, 0.00000000000000000000e+00) (0, 0, 0.00000000000000000000e+00) (0, 0, 0.00000000000000000000e+00) (0, 0, 0.00000000000000000000e+00) (0, 0, 0.00000000000000000000e+00) (0, 0, 0.00000000000000000000e+00) (0, 0, 0.00000000000000000000e+00) (0, 0, 0.00000000000000000000e+00) (0, 0, 0.00000000000000000000e+00) (0, 0, 0.00000000000000000000e+00) (0, 0, 0.00000000000000000000e+00) (0, 0, 0.00000000000000000000e+00) (0, 0, 0.00000000000000000000e+00) (0, 0, 0.00000000000000000000e+00) (0, 0, 0.00000000000000000000e+00) (0, 0, 0.00000000000000000000e+00) (0, 0, 0.00000000000000000000e+00) (0, 0, 0.00000000000000000000e+00) (0, 0, 0.00000000000000000000e+00) (0, 0, 0.00000000000000000000e+00) (0, 0, 0.00000000000000000000e+00) (0, 0, 0.00000000000000000000e+00) (0, 0, 0.00000000000000000000e+00) (0, 0, 0.00000000000000000000e+00) (0, 0, 0.00000000000000000000e+00) (0, 0, 0.00000000000000000000e+00) (0, 0, 0.00000000000000000000e+00) (0, 0, 0.00000000000000000000e+00) (0, 0, 0.00000000000000000000e+00) (0, 0, 0.00000000000000000000e+00) (0, 0, 0.00000000000000000000e+00) (0, 0, 0.00000000000000000000e+00) (0, 0, 0.00000000000000000000e+00) (0, 0, 0.00000000000000000000e+00) (0, 0, 0.00000000000000000000e+00) (0, 0, 0.00000000000000000000e+00) (0, 0, 0.00000000000000000000e+00) (0, 0, 0.00000000000000000000e+00) (0, 0, 0.00000000000000000000e+00) (0, 0, 0.00000000000000000000e+00) (0, 0, 0.00000000000000000000e+00) (0, 0, 0.00000000000000000000e+00) (0, 0, 0.00000000000000000000e+00) (0, 0, 0.00000000000000000000e+00) (0, 0, 0.00000000000000000000e+00) (0, 0, 0.00000000000000000000e+00) (0, 0, 0.00000000000000000000e+00) (0, 0, 0.00000000000000000000e+00) (0, 0, 0.00000000000000000000e+00) (0, 0, 0.00000000000000000000e+00) (0, 0, 0.00000000000000000000e+00) (0, 0, 0.00000000000000000000e+00) (0, 0, 0.00000000000000000000e+00) (0, 0, 0.00000000000000000000e+00) (0, 0, 0.00000000000000000000e+00) (0, 0, 0.00000000000000000000e+00) (193, 4, 5.00000000000000000000e-01) (193, 4, 5.00000000000000000000e-01) (193, 4, 5.00000000000000000000e-01) (193, 4, 5.00000000000000000000e-01) (193, 4, 5.00000000000000000000e-01) (193, 4, 5.00000000000000000000e-01) (193, 4, 5.00000000000000000000e-01) (193, 4, 5.00000000000000000000e-01) (193, 4, 5.00000000000000000000e-01) (193, 4, 5.00000000000000000000e-01) (0, 0, 0.00000000000000000000e+00) (11, 4, 5.00000000000000000000e-01) (0, 0, 0.00000000000000000000e+00) 
connections (connected_to_neuron, weight)=(0, 3.92443008422851562500e+01) (1, 3.92010269165039062500e+01) (2, 3.91836013793945312500e+01) (3, 3.91841583251953125000e+01) (4, 3.91180191040039062500e+01) (5, 3.90687255859375000000e+01) (6, 3.91830749511718750000e+01) (7, 3.91706008911132812500e+01) (8, 3.92264175415039062500e+01) (9, 3.90736389160156250000e+01) (10, 3.91784362792968750000e+01) (11, 3.91530456542968750000e+01) (12, 3.91769943237304687500e+01) (13, 3.91175537109375000000e+01) (14, 3.91913833618164062500e+01) (15, 3.91852493286132812500e+01) (16, -4.38705593347549438477e-01) (17, -4.69098597764968872070e-01) (18, -9.55721735954284667969e-01) (19, 1.12792515754699707031e+00) (20, -8.49581956863403320312e-01) (21, -3.83761733770370483398e-01) (22, -2.04222664237022399902e-01) (23, -6.49097204208374023438e-01) (24, -4.20069456100463867188e-01) (25, -7.35348820686340332031e-01) (26, -1.62382948398590087891e+00) (27, 6.21652305126190185547e-01) (28, -3.04263544082641601562e+00) (29, -7.75416731834411621094e-01) (30, -1.15206515789031982422e+00) (31, 2.44590163230895996094e+00) (32, 5.04378318786621093750e+00) (33, -8.11649322509765625000e-01) (34, 2.51370811462402343750e+00) (35, -6.40065073966979980469e-01) (36, -3.78927278518676757812e+00) (37, -7.39704966545104980469e-01) (38, 7.52710628509521484375e+00) (39, -1.84157896041870117188e+00) (40, 2.43814396858215332031e+00) (41, 3.47304844856262207031e+00) (42, 1.90204381942749023438e-01) (43, 1.61378824710845947266e+00) (44, 7.25182890892028808594e-02) (45, 1.54832231998443603516e+00) (46, 1.62256240844726562500e-01) (47, 7.96339631080627441406e-01) (48, -8.04960250854492187500e+00) (49, 3.58014655113220214844e+00) (50, -3.12616020441055297852e-01) (51, -2.35472023487091064453e-01) (52, 1.38148510456085205078e+00) (53, 1.99723768234252929688e+00) (54, -9.69289243221282958984e-02) (55, 6.26821935176849365234e-01) (56, -1.18608045578002929688e+00) (57, 9.82281112670898437500e+00) (58, -7.73052155971527099609e-01) (59, -5.46087980270385742188e-01) (60, -1.59366381168365478516e+00) (61, -6.72005534172058105469e-01) (62, 3.30191874504089355469e+00) (63, 2.08758187294006347656e+00) (64, -2.91630601882934570312e+00) (65, -9.92922186851501464844e-01) (66, -5.57635009288787841797e-01) (67, 3.34789633750915527344e+00) (68, -3.99799823760986328125e-01) (69, 3.17575907707214355469e+00) (70, 4.12782049179077148438e+00) (71, 1.67836517095565795898e-01) (72, -3.37985634803771972656e+00) (73, -1.95044112205505371094e+00) (74, -1.26405906677246093750e+00) (75, 2.25852227210998535156e+00) (76, 9.96961951255798339844e-01) (77, 2.38104701042175292969e-01) (78, -9.47574806213378906250e+00) (79, 3.43494391441345214844e+00) (80, 6.74977719783782958984e-01) (81, 1.65219056606292724609e+00) (82, -7.30584383010864257812e+00) (83, -9.03990745544433593750e-01) (84, -3.31585556268692016602e-01) (85, -8.03469753265380859375e+00) (86, -1.63537921905517578125e+01) (87, 3.12879610061645507812e+00) (88, 2.03844857215881347656e+00) (89, 1.15685224533081054688e+00) (90, -1.06475800275802612305e-01) (91, -7.08305644989013671875e+00) (92, -2.03081354498863220215e-01) (93, -7.51454234123229980469e-01) (94, -1.27295863628387451172e+00) (95, 1.30113339424133300781e+00) (96, -2.44282317161560058594e+00) (97, -1.09343492984771728516e+00) (98, -3.63047689199447631836e-01) (99, -7.77903646230697631836e-02) (100, -1.88302350044250488281e+00) (101, 2.19325661659240722656e+00) (102, -5.65300881862640380859e-01) (103, 5.28330659866333007812e+00) (104, 1.00198709964752197266e+00) (105, -3.63623291254043579102e-01) (106, -6.14285647869110107422e-01) (107, 1.64650809764862060547e+00) (108, 8.66903722286224365234e-01) (109, -6.52137875556945800781e-01) (110, -7.37498474121093750000e+00) (111, -6.28874349594116210938e+00) (112, 2.83968949317932128906e+00) (113, 1.22767353057861328125e+00) (114, -4.76277446746826171875e+00) (115, -4.14372062683105468750e+00) (116, 2.11767256259918212891e-02) (117, 1.47331011295318603516e+00) (118, -6.07369363307952880859e-01) (119, -8.11586201190948486328e-01) (120, -2.15060305595397949219e+00) (121, -7.26700723171234130859e-01) (122, 7.60111713409423828125e+00) (123, 1.89964842796325683594e+00) (124, -5.66413307189941406250e+00) (125, -6.98476135730743408203e-01) (126, 6.93520128726959228516e-01) (127, 1.47884452342987060547e+00) (128, -1.22733426094055175781e+00) (129, -4.79108524322509765625e+00) (130, 4.28878784179687500000e-01) (131, 2.15836429595947265625e+00) (132, 7.19852507114410400391e-01) (133, -1.60924300551414489746e-01) (134, -7.55756139755249023438e-01) (135, 1.56141877174377441406e+00) (136, 6.15169346332550048828e-01) (137, 3.24604725837707519531e+00) (138, -2.88456499576568603516e-01) (139, -5.26058673858642578125e+00) (140, 2.09754276275634765625e+00) (141, 5.18769502639770507812e+00) (142, -2.87980294227600097656e+00) (143, 4.13895320892333984375e+00) (144, -4.50848370790481567383e-01) (145, -5.51671922206878662109e-01) (146, 9.63911414146423339844e-01) (147, 2.24491342902183532715e-01) (148, -4.17762565612792968750e+00) (149, -1.85440027713775634766e+00) (150, -2.70133793354034423828e-01) (151, 7.21193492412567138672e-01) (152, -4.13886934518814086914e-01) (153, -3.60973536968231201172e-01) (154, -6.63860499858856201172e-01) (155, -5.82783937454223632812e-01) (156, -1.55005061626434326172e+00) (157, -6.09762012958526611328e-01) (158, 2.04844617843627929688e+00) (159, 2.31042020022869110107e-02) (160, -3.40888530015945434570e-01) (161, -2.54167139530181884766e-01) (162, -2.91157579421997070312e+00) (163, -6.76850914955139160156e-01) (164, 1.96085453033447265625e+00) (165, -4.79128658771514892578e-01) (166, 8.63006591796875000000e-01) (167, -3.84483289718627929688e+00) (168, -1.33237946033477783203e+00) (169, 4.02279090881347656250e+00) (170, -4.47247475385665893555e-01) (171, -6.19454324245452880859e-01) (172, -4.55779999494552612305e-01) (173, 1.67178586125373840332e-01) (174, -6.60789585113525390625e+00) (175, 4.60633844137191772461e-01) (176, -5.64519822597503662109e-01) (177, -6.11284911632537841797e-01) (178, -5.64440429210662841797e-01) (179, -5.36815822124481201172e-01) (180, -6.87554299831390380859e-01) (181, -6.41625344753265380859e-01) (182, -6.30932033061981201172e-01) (183, -5.97246825695037841797e-01) (184, -7.29296386241912841797e-01) (185, -6.39074265956878662109e-01) (186, -6.95208251476287841797e-01) (187, -5.60723245143890380859e-01) (188, -5.91454446315765380859e-01) (189, -7.30395019054412841797e-01) (190, -5.81182420253753662109e-01) (191, -6.42907083034515380859e-01) (192, -6.64806544780731201172e-01) (0, 3.90517120361328125000e+01) (1, 3.91956024169921875000e+01) (2, 3.91497344970703125000e+01) (3, 3.91352996826171875000e+01) (4, 3.91186065673828125000e+01) (5, 3.91969985961914062500e+01) (6, 3.92318572998046875000e+01) (7, 3.91522369384765625000e+01) (8, 3.91110839843750000000e+01) (9, 3.91901321411132812500e+01) (10, 3.92396621704101562500e+01) (11, 3.90708084106445312500e+01) (12, 3.92188796997070312500e+01) (13, 3.92078018188476562500e+01) (14, 3.91685485839843750000e+01) (15, 3.91232376098632812500e+01) (16, 7.12122917175292968750e-01) (17, 3.47504138946533203125e-01) (18, 5.08607812225818634033e-02) (19, -5.86763262748718261719e-01) (20, 3.82546752691268920898e-01) (21, 5.09371638298034667969e-01) (22, 1.12777955830097198486e-01) (23, 8.61629992723464965820e-02) (24, 2.00273469090461730957e-01) (25, 2.46048092842102050781e-01) (26, 2.22749203443527221680e-01) (27, 1.07879020273685455322e-01) (28, 3.88437628746032714844e-01) (29, 1.29220679402351379395e-01) (30, 1.20147757232189178467e-01) (31, -3.67023497819900512695e-01) (32, -7.71777033805847167969e-02) (33, 1.71893149614334106445e-01) (34, -1.13268926739692687988e-01) (35, 3.70368331670761108398e-01) (36, 5.92862844467163085938e-01) (37, 3.28351706266403198242e-01) (38, 1.23946651816368103027e-01) (39, 4.35014039278030395508e-01) (40, -1.18366301059722900391e+00) (41, 1.81956812739372253418e-01) (42, 1.24504297971725463867e-01) (43, -5.75542807579040527344e-01) (44, -8.19881319999694824219e-01) (45, 1.77785366773605346680e-01) (46, 6.72777593135833740234e-02) (47, 2.75080129504203796387e-02) (48, 1.41795873641967773438e+00) (49, -5.77054684981703758240e-03) (50, 2.22693666815757751465e-01) (51, 2.51720249652862548828e-01) (52, 4.87963967025279998779e-02) (53, 1.68924301862716674805e-01) (54, 1.65907099843025207520e-01) (55, 9.57777723670005798340e-02) (56, 1.26229763031005859375e-01) (57, 2.62678802013397216797e-01) (58, 4.89740282297134399414e-01) (59, 1.03427492082118988037e-01) (60, 1.72242611646652221680e-01) (61, 6.85549736022949218750e-01) (62, 5.20539060235023498535e-02) (63, 2.02378600835800170898e-01) (64, 5.43249845504760742188e-01) (65, 1.44113212823867797852e-01) (66, 3.31169664859771728516e-01) (67, 4.08539235591888427734e-01) (68, 2.20589429140090942383e-01) (69, 2.76557147502899169922e-01) (70, 1.33388012647628784180e-01) (71, 1.30609318614006042480e-01) (72, 3.02074491977691650391e-01) (73, 3.31585973501205444336e-01) (74, 9.37045440077781677246e-02) (75, 1.97605580091476440430e-01) (76, -3.91175121068954467773e-01) (77, 2.22829326987266540527e-01) (78, 5.04628568887710571289e-02) (79, 1.42908692359924316406e-01) (80, -5.85761785507202148438e-01) (81, -4.31758552789688110352e-01) (82, 4.55017089843750000000e-01) (83, 7.53632932901382446289e-02) (84, 1.80524468421936035156e-01) (85, 6.51763975620269775391e-01) (86, 1.44255593419075012207e-01) (87, 2.04249620437622070312e-01) (88, 1.58015325665473937988e-01) (89, -4.19763714075088500977e-01) (90, 2.16902941465377807617e-01) (91, 3.07213008403778076172e-01) (92, 7.32545852661132812500e-02) (93, 1.48788630962371826172e-01) (94, 3.50696325302124023438e-01) (95, -5.39442121982574462891e-01) (96, 3.53164196014404296875e-01) (97, 2.94110596179962158203e-01) (98, 2.24366068840026855469e-01) (99, 3.44802945852279663086e-01) (100, 2.58328318595886230469e-01) (101, -3.64582091569900512695e-01) (102, 2.09785684943199157715e-01) (103, 1.15707874298095703125e-01) (104, 9.18529480695724487305e-02) (105, 2.16323941946029663086e-01) (106, 7.83712804317474365234e-01) (107, -4.33073848485946655273e-01) (108, -5.10271072387695312500e-01) (109, 2.75807470083236694336e-01) (110, 4.11363124847412109375e-01) (111, -1.34097623825073242188e+00) (112, -5.04366606473922729492e-02) (113, 2.10498049855232238770e-02) (114, 2.52042829990386962891e-01) (115, 2.50007033348083496094e-01) (116, 1.15274868905544281006e-01) (117, 8.87777879834175109863e-02) (118, 4.28723692893981933594e-01) (119, 3.32385987043380737305e-01) (120, 8.53234469890594482422e-01) (121, 3.06657105684280395508e-01) (122, 1.14378675818443298340e-01) (123, 1.98042452335357666016e-01) (124, 1.08951699733734130859e+00) (125, 4.58283841609954833984e-01) (126, -5.03693401813507080078e-01) (127, -4.01459544897079467773e-01) (128, 1.85017570853233337402e-01) (129, 1.75827610492706298828e+00) (130, -4.42469090223312377930e-01) (131, -4.06939804553985595703e-01) (132, -4.68951523303985595703e-01) (133, -7.03748315572738647461e-04) (134, 2.97825932502746582031e-01) (135, 1.67755819857120513916e-02) (136, -7.02187895774841308594e-01) (137, 2.27126181125640869141e-02) (138, 5.24695143103599548340e-02) (139, 5.66947236657142639160e-02) (140, -9.20851707458496093750e-01) (141, 1.00054889917373657227e-01) (142, 8.82504165172576904297e-01) (143, -1.36839374899864196777e-02) (144, 2.84237802028656005859e-01) (145, 2.09786206483840942383e-01) (146, -6.23049676418304443359e-01) (147, -4.52117621898651123047e-02) (148, 3.53240251541137695312e-01) (149, 4.18663382530212402344e-01) (150, 2.99054712057113647461e-01) (151, -3.73712986707687377930e-01) (152, 6.99081242084503173828e-01) (153, 4.79723453521728515625e-01) (154, 3.90883594751358032227e-01) (155, 1.12066045403480529785e-01) (156, 3.57587248086929321289e-01) (157, 4.39449816942214965820e-01) (158, 1.02928481996059417725e-01) (159, -3.51061075925827026367e-01) (160, 4.24699969589710235596e-02) (161, 3.48468482494354248047e-01) (162, 5.49676835536956787109e-01) (163, 3.72675448656082153320e-01) (164, -3.24451513588428497314e-02) (165, 2.76776254177093505859e-01) (166, -7.85042810440063476562e+00) (167, 8.84036123752593994141e-01) (168, 3.85758221149444580078e-01) (169, 3.98309737443923950195e-01) (170, 4.00907784700393676758e-01) (171, 5.59989154338836669922e-01) (172, 2.23765492439270019531e-01) (173, 1.34038400650024414062e+00) (174, 9.61992591619491577148e-02) (175, 1.38773822784423828125e+00) (176, 2.83362597227096557617e-01) (177, 2.71820843219757080078e-01) (178, 2.10572078824043273926e-01) (179, 3.43579858541488647461e-01) (180, 2.11914852261543273926e-01) (181, 3.59412342309951782227e-01) (182, 2.95612365007400512695e-01) (183, 3.42273682355880737305e-01) (184, 3.62604469060897827148e-01) (185, 3.42420190572738647461e-01) (186, 2.15180233120918273926e-01) (187, 2.56262958049774169922e-01) (188, 3.66944104433059692383e-01) (189, 1.97107717394828796387e-01) (190, 3.28101307153701782227e-01) (191, 2.46326461434364318848e-01) (192, 3.30988258123397827148e-01) (0, 3.92140884399414062500e+01) (1, 3.91536865234375000000e+01) (2, 3.90640029907226562500e+01) (3, 3.91545410156250000000e+01) (4, 3.90918426513671875000e+01) (5, 3.91331863403320312500e+01) (6, 3.91094284057617187500e+01) (7, 3.91997375488281250000e+01) (8, 3.92122573852539062500e+01) (9, 3.92027893066406250000e+01) (10, 3.92116470336914062500e+01) (11, 3.91494750976562500000e+01) (12, 3.92254867553710937500e+01) (13, 3.90808258056640625000e+01) (14, 3.91091003417968750000e+01) (15, 3.92080764770507812500e+01) (16, -3.91676872968673706055e-01) (17, -5.33039033412933349609e-01) (18, -1.00456202030181884766e+00) (19, 8.31543326377868652344e-01) (20, -6.33274137973785400391e-01) (21, -3.52493435144424438477e-01) (22, -3.05837094783782958984e-02) (23, -7.42474794387817382812e-01) (24, -1.75803959369659423828e-01) (25, -6.73087000846862792969e-01) (26, -1.57487928867340087891e+00) (27, 5.88058650493621826172e-01) (28, -3.14318466186523437500e+00) (29, -6.85231089591979980469e-01) (30, -1.14197623729705810547e+00) (31, 2.43478083610534667969e+00) (32, 5.03630018234252929688e+00) (33, -9.16416168212890625000e-01) (34, 2.99820065498352050781e+00) (35, -8.17756772041320800781e-01) (36, -3.78694725036621093750e+00) (37, -7.88643002510070800781e-01) (38, 7.50238084793090820312e+00) (39, -1.24502325057983398438e+00) (40, 2.49615168571472167969e+00) (41, 2.80971503257751464844e+00) (42, -3.14166426658630371094e-01) (43, 9.53679859638214111328e-01) (44, 3.14721465110778808594e-02) (45, 1.49372041225433349609e+00) (46, 2.18115687370300292969e-01) (47, 8.76252770423889160156e-01) (48, -8.00269699096679687500e+00) (49, 3.49220108985900878906e+00) (50, -3.45172077417373657227e-01) (51, -2.34367191791534423828e-01) (52, 1.07292652130126953125e+00) (53, 1.20843434333801269531e+00) (54, -2.13676914572715759277e-01) (55, 5.73782384395599365234e-01) (56, -1.28174710273742675781e+00) (57, 9.86810493469238281250e+00) (58, -1.04518163204193115234e+00) (59, -7.01230168342590332031e-01) (60, -1.65725028514862060547e+00) (61, -6.21376812458038330078e-01) (62, 3.24174427986145019531e+00) (63, 2.17907357215881347656e+00) (64, -2.88209581375122070312e+00) (65, -1.14637672901153564453e+00) (66, -3.45032960176467895508e-01) (67, 3.28208851814270019531e+00) (68, -3.20673733949661254883e-01) (69, 3.18412089347839355469e+00) (70, 4.09301805496215820312e+00) (71, 3.18764299154281616211e-01) (72, -3.42438149452209472656e+00) (73, -1.88522529602050781250e+00) (74, -1.32397723197937011719e+00) (75, 2.23908877372741699219e+00) (76, 1.12320876121520996094e+00) (77, 1.88216179609298706055e-01) (78, -9.51330375671386718750e+00) (79, 1.86714720726013183594e+00) (80, 6.33351624011993408203e-01) (81, 1.58902513980865478516e+00) (82, -7.46534729003906250000e+00) (83, -1.08775246143341064453e+00) (84, -4.19849157333374023438e-01) (85, -1.14320945739746093750e+01) (86, -6.66434144973754882812e+00) (87, 1.50910496711730957031e+00) (88, 1.99914789199829101562e+00) (89, 1.17116498947143554688e+00) (90, 2.91036456823348999023e-01) (91, -7.96597194671630859375e+00) (92, -6.70522153377532958984e-02) (93, -8.12745690345764160156e-01) (94, -1.23318839073181152344e+00) (95, 1.12524819374084472656e+00) (96, -1.85820960998535156250e+00) (97, -1.09425294399261474609e+00) (98, -2.34727442264556884766e-01) (99, -3.85874919593334197998e-02) (100, -2.09015464782714843750e+00) (101, 2.00890541076660156250e+00) (102, -8.77412617206573486328e-01) (103, 5.11099195480346679688e+00) (104, 9.11880850791931152344e-01) (105, -4.78967458009719848633e-01) (106, -6.84970498085021972656e-01) (107, 1.29546308517456054688e+00) (108, 4.34762597084045410156e-01) (109, -6.46498084068298339844e-01) (110, -7.47149324417114257812e+00) (111, -6.38684511184692382812e+00) (112, 2.97596859931945800781e+00) (113, 1.05564594268798828125e+00) (114, -1.63854694366455078125e+01) (115, -4.23678064346313476562e+00) (116, -7.15784579515457153320e-02) (117, 1.44568574428558349609e+00) (118, -5.41842043399810791016e-01) (119, -7.51246631145477294922e-01) (120, -2.11702132225036621094e+00) (121, -6.27304852008819580078e-01) (122, 4.09068059921264648438e+00) (123, 1.98315668106079101562e+00) (124, -5.67793321609497070312e+00) (125, -5.25198340415954589844e-01) (126, 5.94453990459442138672e-01) (127, 2.03332781791687011719e+00) (128, -1.32629656791687011719e+00) (129, -4.79537010192871093750e+00) (130, 7.16420590877532958984e-01) (131, 2.07893323898315429688e+00) (132, 7.49070107936859130859e-01) (133, -8.05227458477020263672e-02) (134, -7.23621129989624023438e-01) (135, -1.58064007759094238281e+00) (136, 6.18074595928192138672e-01) (137, 3.27645492553710937500e+00) (138, -4.10717695951461791992e-01) (139, -5.30886554718017578125e+00) (140, 2.06423592567443847656e+00) (141, 5.14411592483520507812e+00) (142, -2.88477730751037597656e+00) (143, 4.05964994430541992188e+00) (144, -5.69276809692382812500e-01) (145, -4.73298311233520507812e-01) (146, 8.53027343750000000000e-01) (147, 1.60288557410240173340e-01) (148, -4.32421970367431640625e+00) (149, -2.32720923423767089844e+00) (150, -2.24906742572784423828e-01) (151, 7.33479917049407958984e-01) (152, -2.84260392189025878906e-01) (153, -5.00573873519897460938e-01) (154, -6.21050536632537841797e-01) (155, -4.44722384214401245117e-01) (156, -1.52523982524871826172e+00) (157, -5.16659021377563476562e-01) (158, 2.01277709007263183594e+00) (159, 1.60299077630043029785e-01) (160, -5.51757276058197021484e-01) (161, -4.19805973768234252930e-01) (162, -1.07440507411956787109e+00) (163, -6.65376305580139160156e-01) (164, 1.16885304450988769531e+00) (165, -4.36330854892730712891e-01) (166, 7.29180932044982910156e-01) (167, -3.83464002609252929688e+00) (168, -1.36623561382293701172e+00) (169, 4.06564998626708984375e+00) (170, -3.94030958414077758789e-01) (171, -5.41512429714202880859e-01) (172, -3.71878325939178466797e-01) (173, 8.65940600633621215820e-02) (174, -6.60484409332275390625e+00) (175, 3.91267389059066772461e-01) (176, -6.46624267101287841797e-01) (177, -6.81646287441253662109e-01) (178, -6.41454637050628662109e-01) (179, -7.27251708507537841797e-01) (180, -5.94573438167572021484e-01) (181, -6.57256543636322021484e-01) (182, -6.58947169780731201172e-01) (183, -6.33574903011322021484e-01) (184, -6.23827636241912841797e-01) (185, -6.51000440120697021484e-01) (186, -6.54711425304412841797e-01) (187, -6.50841653347015380859e-01) (188, -5.51696240901947021484e-01) (189, -5.48320949077606201172e-01) (190, -6.60198390483856201172e-01) (191, -7.21349656581878662109e-01) (192, -5.41411817073822021484e-01) (0, 3.91925125122070312500e+01) (1, 3.91146774291992187500e+01) (2, 3.91448745727539062500e+01) (3, 3.91625289916992187500e+01) (4, 3.91898193359375000000e+01) (5, 3.91522827148437500000e+01) (6, 3.91767044067382812500e+01) (7, 3.91334838867187500000e+01) (8, 3.91764144897460937500e+01) (9, 3.91975479125976562500e+01) (10, 3.91151885986328125000e+01) (11, 3.92268753051757812500e+01) (12, 3.91748275756835937500e+01) (13, 3.91513748168945312500e+01) (14, 3.90522155761718750000e+01) (15, 3.90831451416015625000e+01) (16, -3.36067706346511840820e-01) (17, -4.24512356519699096680e-01) (18, -1.00984156131744384766e+00) (19, 1.20145416259765625000e+00) (20, -9.53958272933959960938e-01) (21, -4.29042667150497436523e-01) (22, -1.09843939542770385742e-01) (23, -6.96014881134033203125e-01) (24, -3.61701518297195434570e-01) (25, -6.42105460166931152344e-01) (26, -1.67218768596649169922e+00) (27, 6.63266122341156005859e-01) (28, -3.12928700447082519531e+00) (29, -7.13539242744445800781e-01) (30, -9.92989182472229003906e-01) (31, 2.38309669494628906250e+00) (32, 4.94334983825683593750e+00) (33, -8.06931257247924804688e-01) (34, 2.57888746261596679688e+00) (35, -7.42262244224548339844e-01) (36, -3.85679006576538085938e+00) (37, -8.32728743553161621094e-01) (38, 4.64442586898803710938e+00) (39, -1.68175268173217773438e+00) (40, 2.38685631752014160156e+00) (41, 2.87911820411682128906e+00) (42, -2.09899991750717163086e-01) (43, 1.74680209159851074219e+00) (44, 9.34348702430725097656e-02) (45, 1.37343823909759521484e+00) (46, 8.00297260284423828125e-02) (47, 7.93446421623229980469e-01) (48, -7.98151206970214843750e+00) (49, 3.56570601463317871094e+00) (50, -4.43023651838302612305e-01) (51, -2.10508644580841064453e-01) (52, 1.01538252830505371094e+00) (53, 1.02402877807617187500e+00) (54, -1.44530281424522399902e-01) (55, 5.84091365337371826172e-01) (56, -1.16247820854187011719e+00) (57, 9.94947147369384765625e+00) (58, -1.76176893711090087891e+00) (59, -6.40799164772033691406e-01) (60, -1.56548988819122314453e+00) (61, -6.46382987499237060547e-01) (62, 3.25759506225585937500e+00) (63, 2.13389539718627929688e+00) (64, -2.92842769622802734375e+00) (65, -1.03770363330841064453e+00) (66, -3.52467089891433715820e-01) (67, 3.16570663452148437500e+00) (68, -5.06757736206054687500e-01) (69, 3.30184555053710937500e+00) (70, 4.10003089904785156250e+00) (71, 2.01454728841781616211e-01) (72, -3.43644165992736816406e+00) (73, -1.89854931831359863281e+00) (74, -1.21096467971801757812e+00) (75, 2.40738677978515625000e+00) (76, 1.01690375804901123047e+00) (77, 2.49507755041122436523e-01) (78, -9.43884658813476562500e+00) (79, 1.91241693496704101562e+00) (80, 6.60671055316925048828e-01) (81, 1.61052787303924560547e+00) (82, -7.31888103485107421875e+00) (83, -1.02429425716400146484e+00) (84, -3.08935552835464477539e-01) (85, -1.15417861938476562500e+01) (86, -1.64006729125976562500e+01) (87, 3.21994614601135253906e+00) (88, 1.96477913856506347656e+00) (89, 1.12474179267883300781e+00) (90, -1.89367502927780151367e-01) (91, -6.98097515106201171875e+00) (92, -1.16704329848289489746e-01) (93, -7.46907114982604980469e-01) (94, -1.10213351249694824219e+00) (95, 1.20877480506896972656e+00) (96, -3.12556385993957519531e+00) (97, -1.07729113101959228516e+00) (98, 3.93441319465637207031e-01) (99, -8.06284993886947631836e-02) (100, -1.90591764450073242188e+00) (101, 2.06324577331542968750e+00) (102, -6.00628077983856201172e-01) (103, 5.22948598861694335938e+00) (104, 8.50351452827453613281e-01) (105, -2.91992455720901489258e-01) (106, -6.11630618572235107422e-01) (107, 1.13072919845581054688e+00) (108, 5.71261644363403320312e-01) (109, -7.07209706306457519531e-01) (110, -7.46282005310058593750e+00) (111, -6.41132640838623046875e+00) (112, 2.90134072303771972656e+00) (113, 1.05407118797302246094e+00) (114, -1.63954982757568359375e+01) (115, -4.18910026550292968750e+00) (116, -5.73906183242797851562e-01) (117, 2.92174243927001953125e+00) (118, -5.35622537136077880859e-01) (119, -7.82466232776641845703e-01) (120, -2.09080910682678222656e+00) (121, -6.40024542808532714844e-01) (122, 7.46515560150146484375e+00) (123, 2.01358890533447265625e+00) (124, -5.65879249572753906250e+00) (125, -6.80867910385131835938e-01) (126, 7.54469811916351318359e-01) (127, 2.17146253585815429688e+00) (128, -1.19492459297180175781e+00) (129, -4.92763328552246093750e+00) (130, 7.30318248271942138672e-01) (131, 2.07802367210388183594e+00) (132, 6.53165519237518310547e-01) (133, -6.81326091289520263672e-02) (134, -7.21240758895874023438e-01) (135, 1.64584898948669433594e+00) (136, 7.17989146709442138672e-01) (137, 3.20919418334960937500e+00) (138, -3.12553256750106811523e-01) (139, -5.32485675811767578125e+00) (140, 2.02163338661193847656e+00) (141, 5.15684795379638671875e+00) (142, -2.91729092597961425781e+00) (143, 4.05880165100097656250e+00) (144, -5.27553260326385498047e-01) (145, -4.48139667510986328125e-01) (146, 9.29878234863281250000e-01) (147, 1.24912485480308532715e-01) (148, -4.17415285110473632812e+00) (149, -1.97812473773956298828e+00) (150, -2.61662065982818603516e-01) (151, 5.91811120510101318359e-01) (152, -2.37574577331542968750e-01) (153, -3.83239150047302246094e-01) (154, -6.30669534206390380859e-01) (155, -4.37748104333877563477e-01) (156, -1.52260911464691162109e+00) (157, -5.85433483123779296875e-01) (158, 2.05594730377197265625e+00) (159, 5.76441362500190734863e-02) (160, -4.11243915557861328125e-01) (161, -2.56034672260284423828e-01) (162, -3.02756071090698242188e+00) (163, -7.82765269279479980469e-01) (164, 1.82975518703460693359e+00) (165, -5.05532562732696533203e-01) (166, 7.07434058189392089844e-01) (167, -3.78455495834350585938e+00) (168, -1.26133453845977783203e+00) (169, 4.05647611618041992188e+00) (170, -3.96087855100631713867e-01) (171, -6.07637941837310791016e-01) (172, -3.73514056205749511719e-01) (173, 4.22274619340896606445e-02) (174, -6.67601108551025390625e+00) (175, 3.73646587133407592773e-01) (176, -6.68902099132537841797e-01) (177, -5.84038674831390380859e-01) (178, -5.42699754238128662109e-01) (179, -5.49895703792572021484e-01) (180, -5.92547118663787841797e-01) (181, -6.30577981472015380859e-01) (182, -6.42437160015106201172e-01) (183, -6.57201707363128662109e-01) (184, -6.77215039730072021484e-01) (185, -6.78270995616912841797e-01) (186, -6.29815042018890380859e-01) (187, -5.97094237804412841797e-01) (188, -6.71374022960662841797e-01) (189, -6.94506347179412841797e-01) (190, -6.64251267910003662109e-01) (191, -6.06463134288787841797e-01) (192, -6.18944823741912841797e-01) (0, 3.91978607177734375000e+01) (1, 3.91579818725585937500e+01) (2, 3.92039642333984375000e+01) (3, 3.92169799804687500000e+01) (4, 3.92350997924804687500e+01) (5, 3.91791076660156250000e+01) (6, 3.91424942016601562500e+01) (7, 3.91945266723632812500e+01) (8, 3.91265563964843750000e+01) (9, 3.92218780517578125000e+01) (10, 3.90943832397460937500e+01) (11, 3.92032699584960937500e+01) (12, 3.91918716430664062500e+01) (13, 3.90970230102539062500e+01) (14, 3.92186203002929687500e+01) (15, 3.90928955078125000000e+01) (16, 2.97967940568923950195e-01) (17, 2.77466922998428344727e-01) (18, 1.08950503170490264893e-01) (19, -3.58606028556823730469e+00) (20, -5.28753288090229034424e-02) (21, 1.86492323875427246094e-01) (22, 3.37186222895979881287e-03) (23, 5.25724031031131744385e-02) (24, -4.85852479934692382812e-01) (25, 1.31285279989242553711e-01) (26, 7.34666138887405395508e-02) (27, -7.01943755149841308594e-01) (28, 4.54430639743804931641e-01) (29, 2.29931950569152832031e-01) (30, 6.26069009304046630859e-01) (31, -4.34351348876953125000e+00) (32, -1.49646252393722534180e-01) (33, 1.44593328237533569336e-01) (34, -3.93573188781738281250e+00) (35, 4.54428762197494506836e-01) (36, 1.70936334133148193359e+00) (37, 3.63430023193359375000e-01) (38, -2.66375131905078887939e-02) (39, 5.26148855686187744141e-01) (40, -2.97506809234619140625e+00) (41, 9.04760584235191345215e-02) (42, -1.23303659260272979736e-01) (43, 1.16141653060913085938e+00) (44, 4.46793675422668457031e-01) (45, -2.12383604049682617188e+00) (46, -5.37574291229248046875e-02) (47, -2.74004369974136352539e-01) (48, 4.34572070837020874023e-01) (49, -6.01415872573852539062e-01) (50, -7.58989304304122924805e-02) (51, 2.67011523246765136719e-02) (52, -1.39963567256927490234e+00) (53, 3.33402641117572784424e-02) (54, -2.63240426778793334961e-01) (55, 1.37718811631202697754e-01) (56, 2.57281679660081863403e-02) (57, -1.81337356567382812500e-01) (58, 5.67780733108520507812e-01) (59, -6.91274881362915039062e-01) (60, 1.23527675867080688477e-01) (61, 2.54850029945373535156e-01) (62, -7.66561150550842285156e-01) (63, -1.25925025939941406250e+01) (64, 3.87110114097595214844e-01) (65, 8.65766629576683044434e-02) (66, 2.89934247732162475586e-01) (67, 9.31681599467992782593e-03) (68, 2.00290709733963012695e-01) (69, -6.08331859111785888672e-02) (70, -1.30611014366149902344e+00) (71, -1.68005600571632385254e-01) (72, 3.30913096666336059570e-01) (73, 1.09478819370269775391e+00) (74, 1.37500822544097900391e-01) (75, -9.97957825660705566406e-01) (76, -6.82291030883789062500e-01) (77, -2.13911086320877075195e-02) (78, 4.40626472234725952148e-01) (79, -1.48969924449920654297e+00) (80, -4.52929139137268066406e-01) (81, -2.24955487251281738281e+00) (82, 3.15109968185424804688e-01) (83, 8.87676142156124114990e-05) (84, 5.28978481888771057129e-02) (85, 5.08163988590240478516e-01) (86, 1.84626698493957519531e+00) (87, -1.74176841974258422852e-01) (88, -5.70814311504364013672e-02) (89, -1.27799212932586669922e+00) (90, -1.87878417968750000000e+00) (91, 3.37726831436157226562e-01) (92, -8.24147820472717285156e-01) (93, 1.24237626791000366211e-01) (94, 3.69276069104671478271e-02) (95, -1.49281108379364013672e+00) (96, 4.94027361273765563965e-02) (97, 3.36876422166824340820e-01) (98, -2.15458318591117858887e-01) (99, -2.50915944576263427734e-01) (100, 1.41957491636276245117e-01) (101, -1.81419432163238525391e+00) (102, 3.09972584247589111328e-01) (103, -6.26286044716835021973e-02) (104, -7.58217930793762207031e-01) (105, -2.46141999959945678711e-01) (106, -3.29298153519630432129e-02) (107, -1.15537929534912109375e+00) (108, -1.07761812210083007812e+00) (109, 4.19704735279083251953e-01) (110, 3.13265472650527954102e-01) (111, 3.20809483528137207031e-01) (112, -6.67864084243774414062e-01) (113, 1.21641695499420166016e-01) (114, 6.31538569927215576172e-01) (115, 2.29846388101577758789e-01) (116, 9.74574685096740722656e-02) (117, -2.92719334363937377930e-01) (118, 1.70936942100524902344e-01) (119, 1.50426223874092102051e-01) (120, 1.70801508426666259766e+00) (121, 3.27968716621398925781e-01) (122, 9.62606519460678100586e-02) (123, -1.80069491267204284668e-01) (124, 1.96672186255455017090e-01) (125, 2.78989642858505249023e-01) (126, -6.34839713573455810547e-01) (127, -3.11489629745483398438e+00) (128, -8.06180834770202636719e-02) (129, 3.36105346679687500000e-01) (130, -4.12941545248031616211e-01) (131, -4.37913835048675537109e-01) (132, -9.25382971763610839844e-01) (133, -5.79251289367675781250e-01) (134, -6.71645104885101318359e-02) (135, -6.96388065814971923828e-01) (136, -1.31114137172698974609e+00) (137, -6.94244265556335449219e-01) (138, -4.17534589767456054688e-01) (139, 1.21630504727363586426e-01) (140, 1.48964142799377441406e+00) (141, -2.17116284370422363281e+00) (142, 6.62009334564208984375e+00) (143, -2.06229060888290405273e-01) (144, 1.66730046272277832031e-01) (145, 4.01353687047958374023e-02) (146, -6.58258974552154541016e-01) (147, -1.27918040752410888672e+00) (148, 6.95169925689697265625e-01) (149, 6.06619775295257568359e-01) (150, 2.82884314656257629395e-02) (151, -6.17209196090698242188e-01) (152, -1.09165680408477783203e+00) (153, 1.13674715161323547363e-01) (154, 6.70213475823402404785e-02) (155, 1.37350022792816162109e-01) (156, 6.21229231357574462891e-01) (157, 9.42936539649963378906e-03) (158, 2.56395041942596435547e-02) (159, -5.86768209934234619141e-01) (160, -5.12651465833187103271e-02) (161, -1.32558807730674743652e-01) (162, 2.94836580753326416016e-01) (163, 3.83311957120895385742e-01) (164, 3.55763873085379600525e-03) (165, -4.25727009773254394531e-01) (166, -3.88658285140991210938e+00) (167, 1.01755082607269287109e+00) (168, 2.54191365092992782593e-03) (169, -1.36304140090942382812e-01) (170, 7.01993107795715332031e-01) (171, 3.05357247591018676758e-01) (172, 1.75810698419809341431e-02) (173, 2.24760794639587402344e+00) (174, 1.66393833160400390625e+01) (175, 6.39096617698669433594e-01) (176, 1.37269109487533569336e-01) (177, 4.48191612958908081055e-02) (178, -7.37477093935012817383e-04) (179, 1.15870192646980285645e-01) (180, 9.25608798861503601074e-02) (181, 8.40159580111503601074e-02) (182, 1.41852855682373046875e-01) (183, -1.85902509838342666626e-02) (184, -5.46160759404301643372e-03) (185, 1.46760076284408569336e-01) (186, 5.42124845087528228760e-02) (187, 1.22565753757953643799e-01) (188, -3.91741469502449035645e-03) (189, 8.77818390727043151855e-02) (190, 1.32056713104248046875e-01) (191, -2.73610148578882217407e-02) (192, 3.60667258501052856445e-02) (0, 3.91622085571289062500e+01) (1, 3.91110839843750000000e+01) (2, 3.91299057006835937500e+01) (3, 3.92121734619140625000e+01) (4, 3.92440414428710937500e+01) (5, 3.91279525756835937500e+01) (6, 3.91911087036132812500e+01) (7, 3.91967239379882812500e+01) (8, 3.90754089355468750000e+01) (9, 3.92104339599609375000e+01) (10, 3.92189025878906250000e+01) (11, 3.90723571777343750000e+01) (12, 3.92171173095703125000e+01) (13, 3.91423110961914062500e+01) (14, 3.91636352539062500000e+01) (15, 3.91830825805664062500e+01) (16, -3.99233013391494750977e-01) (17, -2.68858164548873901367e-01) (18, -9.58657383918762207031e-01) (19, 1.17848062515258789062e+00) (20, -7.96908617019653320312e-01) (21, -4.04280692338943481445e-01) (22, -1.52971491217613220215e-01) (23, -8.16980361938476562500e-01) (24, -3.77290040254592895508e-01) (25, -6.71420693397521972656e-01) (26, -1.72141849994659423828e+00) (27, 5.18820226192474365234e-01) (28, -3.10838246345520019531e+00) (29, -6.72328114509582519531e-01) (30, -1.02818214893341064453e+00) (31, 2.42273879051208496094e+00) (32, 5.02397727966308593750e+00) (33, -8.52744340896606445312e-01) (34, 2.54393291473388671875e+00) (35, -7.67689585685729980469e-01) (36, -3.84724378585815429688e+00) (37, -6.88331723213195800781e-01) (38, 4.77357625961303710938e+00) (39, -1.80052709579467773438e+00) (40, 2.47017526626586914062e+00) (41, 2.84913134574890136719e+00) (42, -1.82806462049484252930e-01) (43, 1.77936196327209472656e+00) (44, 1.26717269420623779297e-01) (45, 1.40814292430877685547e+00) (46, 1.34979724884033203125e-01) (47, 8.63307356834411621094e-01) (48, -8.03097438812255859375e+00) (49, 3.44099879264831542969e+00) (50, -2.71246343851089477539e-01) (51, -2.53721535205841064453e-01) (52, 1.21645629405975341797e+00) (53, 1.76800596714019775391e+00) (54, -1.54869541525840759277e-01) (55, 5.28555333614349365234e-01) (56, -1.14072537422180175781e+00) (57, 9.93228340148925781250e+00) (58, -1.61529874801635742188e+00) (59, -5.17889738082885742188e-01) (60, -1.57800209522247314453e+00) (61, -5.49135625362396240234e-01) (62, 3.31195902824401855469e+00) (63, 2.15696048736572265625e+00) (64, -3.02928209304809570312e+00) (65, -1.02040016651153564453e+00) (66, -4.07795429229736328125e-01) (67, 3.31949687004089355469e+00) (68, -4.64124679565429687500e-01) (69, 3.25980448722839355469e+00) (70, 3.97503089904785156250e+00) (71, 3.10481876134872436523e-01) (72, -3.30759072303771972656e+00) (73, -1.82691216468811035156e+00) (74, -1.27835345268249511719e+00) (75, 2.40078878402709960938e+00) (76, 9.61605906486511230469e-01) (77, 1.44789665937423706055e-01) (78, -9.42517471313476562500e+00) (79, 1.90976190567016601562e+00) (80, 7.42854893207550048828e-01) (81, 1.74002206325531005859e+00) (82, -7.33373689651489257812e+00) (83, -1.11295998096466064453e+00) (84, -3.13348442316055297852e-01) (85, -1.15069770812988281250e+01) (86, -6.71574544906616210938e+00) (87, 3.20076894760131835938e+00) (88, 2.00168085098266601562e+00) (89, 1.11438393592834472656e+00) (90, -1.74731224775314331055e-01) (91, -7.02927780151367187500e+00) (92, -1.97472080588340759277e-01) (93, -7.21356987953186035156e-01) (94, -1.14049410820007324219e+00) (95, 1.16519570350646972656e+00) (96, -3.06709837913513183594e+00) (97, -9.91145968437194824219e-01) (98, -1.87992632389068603516e-01) (99, 1.01795978844165802002e-02) (100, -1.86298561096191406250e+00) (101, 1.99170577526092529297e+00) (102, -5.43590724468231201172e-01) (103, 5.16088819503784179688e+00) (104, 6.89400255680084228516e-01) (105, -3.99585098028182983398e-01) (106, -7.80038833618164062500e-01) (107, 1.17419242858886718750e+00) (108, 4.49783325195312500000e-01) (109, -6.40394568443298339844e-01) (110, -7.35766267776489257812e+00) (111, -6.48167562484741210938e+00) (112, 2.89131283760070800781e+00) (113, 1.20464491844177246094e+00) (114, -1.63803863525390625000e+01) (115, -4.31989860534667968750e+00) (116, -4.70244050025939941406e-01) (117, 2.91232466697692871094e+00) (118, -4.89223450422286987305e-01) (119, -8.84565889835357666016e-01) (120, -2.10673069953918457031e+00) (121, -6.60971820354461669922e-01) (122, 7.49537372589111328125e+00) (123, 1.99210453033447265625e+00) (124, -5.51568937301635742188e+00) (125, -6.04525029659271240234e-01) (126, 5.83693444728851318359e-01) (127, 2.18344974517822265625e+00) (128, -1.15313982963562011719e+00) (129, -4.81652450561523437500e+00) (130, 6.78389489650726318359e-01) (131, 2.01717162132263183594e+00) (132, 8.03061783313751220703e-01) (133, -1.71959385275840759277e-01) (134, -7.90906190872192382812e-01) (135, 1.62895417213439941406e+00) (136, 7.54341661930084228516e-01) (137, 3.21912455558776855469e+00) (138, -3.27195733785629272461e-01) (139, -5.24256896972656250000e+00) (140, 2.00830936431884765625e+00) (141, 5.25028657913208007812e+00) (142, -3.02030587196350097656e+00) (143, 4.02284574508666992188e+00) (144, -6.02270543575286865234e-01) (145, -3.35023194551467895508e-01) (146, 1.05976271629333496094e+00) (147, 3.37991565465927124023e-02) (148, -4.16726779937744140625e+00) (149, -1.93908035755157470703e+00) (150, -4.75361347198486328125e-01) (151, 6.47249400615692138672e-01) (152, -3.04139584302902221680e-01) (153, -3.94298672676086425781e-01) (154, -6.30669534206390380859e-01) (155, -4.44990903139114379883e-01) (156, -1.48656785488128662109e+00) (157, -4.97744172811508178711e-01) (158, 1.90564823150634765625e+00) (159, 6.96680694818496704102e-02) (160, -6.54259622097015380859e-01) (161, -3.63456577062606811523e-01) (162, -1.01783788204193115234e+00) (163, -6.80451989173889160156e-01) (164, 1.10384440422058105469e+00) (165, -4.71432268619537353516e-01) (166, 7.07409620285034179688e-01) (167, -3.83564138412475585938e+00) (168, -1.32160675525665283203e+00) (169, 3.97885799407958984375e+00) (170, -4.90844994783401489258e-01) (171, -6.31746828556060791016e-01) (172, -5.02383768558502197266e-01) (173, 2.11526826024055480957e-01) (174, -6.66926670074462890625e+00) (175, 4.21437114477157592773e-01) (176, -6.52068555355072021484e-01) (177, -6.07927978038787841797e-01) (178, -6.72515332698822021484e-01) (179, -5.90972363948822021484e-01) (180, -6.72844827175140380859e-01) (181, -6.93737208843231201172e-01) (182, -5.96880614757537841797e-01) (183, -5.93993604183197021484e-01) (184, -5.70983350276947021484e-01) (185, -5.71081101894378662109e-01) (186, -5.69506347179412841797e-01) (187, -7.02373683452606201172e-01) (188, -6.46373927593231201172e-01) (189, -7.05413281917572021484e-01) (190, -5.98620116710662841797e-01) (191, -5.77654540538787841797e-01) (192, -5.55694043636322021484e-01) (0, 3.90788116455078125000e+01) (1, 3.91438369750976562500e+01) (2, 3.92378005981445312500e+01) (3, 3.91086196899414062500e+01) (4, 3.90785217285156250000e+01) (5, 3.92001419067382812500e+01) (6, 3.91060867309570312500e+01) (7, 3.91816482543945312500e+01) (8, 3.90574569702148437500e+01) (9, 3.91744461059570312500e+01) (10, 3.91346740722656250000e+01) (11, 3.91871109008789062500e+01) (12, 3.91303939819335937500e+01) (13, 3.91990203857421875000e+01) (14, 3.91967849731445312500e+01) (15, 3.91951904296875000000e+01) (16, 1.89700409770011901855e-01) (17, 3.80561351776123046875e-01) (18, 7.30397999286651611328e-02) (19, -4.03893023729324340820e-01) (20, 4.92507666349411010742e-01) (21, 4.37478393316268920898e-01) (22, 1.48791447281837463379e-02) (23, 1.76853850483894348145e-01) (24, 2.63837188482284545898e-01) (25, 3.69979947805404663086e-01) (26, 2.05099582672119140625e-01) (27, 1.35037228465080261230e-01) (28, 4.21690762042999267578e-01) (29, 7.68867254257202148438e-01) (30, 3.05406481027603149414e-01) (31, -3.85138779878616333008e-01) (32, -4.20763790607452392578e-02) (33, 1.54699534177780151367e-01) (34, -1.17163017392158508301e-01) (35, 4.11165058612823486328e-01) (36, 5.99253177642822265625e-01) (37, 1.18753850460052490234e-01) (38, 4.01752829551696777344e-01) (39, 4.90073859691619873047e-01) (40, -5.05060613155364990234e-01) (41, 1.66618645191192626953e-01) (42, 1.89651101827621459961e-01) (43, -6.62483036518096923828e-01) (44, -9.26308274269104003906e-01) (45, 7.35051110386848449707e-02) (46, 1.74387870356440544128e-03) (47, 2.28913016617298126221e-02) (48, 1.36891698837280273438e+00) (49, 1.10525824129581451416e-01) (50, 2.29492336511611938477e-01) (51, 3.04525315761566162109e-01) (52, 1.48564457893371582031e-01) (53, 8.75522196292877197266e-02) (54, 8.10333266854286193848e-02) (55, 1.75387635827064514160e-01) (56, 2.03451484441757202148e-01) (57, 2.17714190483093261719e-01) (58, 1.04483640193939208984e+00) (59, 1.96595445275306701660e-01) (60, 2.47630566358566284180e-01) (61, 7.17371940612792968750e-01) (62, 1.49179175496101379395e-01) (63, 2.23850697278976440430e-01) (64, 5.84332585334777832031e-01) (65, 2.72244393825531005859e-01) (66, 3.89000445604324340820e-01) (67, 5.01312613487243652344e-01) (68, 2.03432470560073852539e-01) (69, 2.80817419290542602539e-01) (70, 1.69557452201843261719e-01) (71, 2.01828349381685256958e-02) (72, 4.06426280736923217773e-01) (73, 3.87600898742675781250e-01) (74, 2.44272410869598388672e-01) (75, 6.11948743462562561035e-02) (76, -4.96155589818954467773e-01) (77, 6.07626512646675109863e-02) (78, 2.68601596355438232422e-01) (79, 1.48465871810913085938e-01) (80, -6.46510004997253417969e-01) (81, -5.39741933345794677734e-01) (82, 3.39752256870269775391e-01) (83, -1.14611886441707611084e-01) (84, 2.71076261997222900391e-01) (85, 4.71915572881698608398e-01) (86, 2.61655807495117187500e-01) (87, 2.03993260860443115234e-01) (88, 1.44625931978225708008e-01) (89, -5.65467596054077148438e-01) (90, 2.57296144962310791016e-01) (91, 6.16955637931823730469e-01) (92, -4.70782369375228881836e-02) (93, 3.30420821905136108398e-01) (94, 3.41870605945587158203e-01) (95, -6.45350337028503417969e-01) (96, 2.71361917257308959961e-01) (97, 2.81045645475387573242e-01) (98, 2.58608400821685791016e-01) (99, 3.58993619680404663086e-01) (100, 2.73676931858062744141e-01) (101, -3.57392162084579467773e-01) (102, 1.40756130218505859375e-01) (103, -1.71142965555191040039e-01) (104, -6.61501884460449218750e-01) (105, 1.52523860335350036621e-01) (106, 5.44146060943603515625e-01) (107, -5.70055007934570312500e-01) (108, -6.14083826541900634766e-01) (109, 2.42105662822723388672e-01) (110, 4.84430700540542602539e-01) (111, -1.30465424060821533203e+00) (112, -6.61047622561454772949e-02) (113, 3.87927949428558349609e-01) (114, 3.49050045013427734375e-01) (115, 3.70620220899581909180e-01) (116, 2.09561571478843688965e-01) (117, 1.73970669507980346680e-01) (118, 2.13684141635894775391e-01) (119, 4.22823846340179443359e-01) (120, 9.07567977905273437500e-01) (121, 2.06120043992996215820e-01) (122, 2.03148186206817626953e-01) (123, 1.46742373704910278320e-01) (124, 8.21973621845245361328e-01) (125, 6.46429181098937988281e-01) (126, -5.20813763141632080078e-01) (127, -3.60511094331741333008e-01) (128, 7.57077634334564208984e-02) (129, 1.66790747642517089844e+00) (130, -5.15260756015777587891e-01) (131, -4.06933605670928955078e-01) (132, -4.25268590450286865234e-01) (133, 9.70276072621345520020e-03) (134, 3.24614256620407104492e-01) (135, -5.75354248285293579102e-02) (136, -5.33082246780395507812e-01) (137, 3.65428887307643890381e-02) (138, 1.56517595052719116211e-01) (139, 1.26929879188537597656e-01) (140, -4.94079917669296264648e-01) (141, 7.54206031560897827148e-02) (142, 7.19271838665008544922e-01) (143, 1.20244070887565612793e-01) (144, 1.09618015587329864502e-01) (145, 2.97328978776931762695e-01) (146, -6.96603477001190185547e-01) (147, -1.88491404056549072266e-01) (148, 2.96282261610031127930e-01) (149, 3.39910566806793212891e-01) (150, 4.07093018293380737305e-01) (151, -4.71119016408920288086e-01) (152, 2.85284698009490966797e-01) (153, 4.21801090240478515625e-01) (154, 2.29579925537109375000e-01) (155, 3.48028570413589477539e-01) (156, 7.93541431427001953125e-01) (157, 4.89669531583786010742e-01) (158, 8.67038369178771972656e-02) (159, -2.72801786661148071289e-01) (160, 7.80473798513412475586e-02) (161, 2.04507827758789062500e-01) (162, 1.19358503818511962891e+00) (163, 5.10821700096130371094e-01) (164, 2.24170997738838195801e-01) (165, 3.73851567506790161133e-01) (166, -7.27425670623779296875e+00) (167, 5.43161034584045410156e-01) (168, 1.49899363517761230469e-01) (169, 4.26520198583602905273e-01) (170, 1.80650144815444946289e-01) (171, 4.73768740892410278320e-01) (172, 2.09397822618484497070e-01) (173, 1.22500967979431152344e+00) (174, 2.34449908137321472168e-01) (175, 1.34649074077606201172e+00) (176, 3.29596459865570068359e-01) (177, 2.63660192489624023438e-01) (178, 1.79248556494712829590e-01) (179, 2.30225101113319396973e-01) (180, 3.30847680568695068359e-01) (181, 2.28027835488319396973e-01) (182, 3.60315442085266113281e-01) (183, 3.28943371772766113281e-01) (184, 3.15570563077926635742e-01) (185, 2.11273714900016784668e-01) (186, 2.58051067590713500977e-01) (187, 3.14014166593551635742e-01) (188, 2.63422161340713500977e-01) (189, 2.44891867041587829590e-01) (190, 3.66748511791229248047e-01) (191, 2.36261501908302307129e-01) (192, 3.20831775665283203125e-01) (0, 3.91740112304687500000e+01) (1, 3.91662902832031250000e+01) (2, 3.92099685668945312500e+01) (3, 3.90828933715820312500e+01) (4, 3.91556091308593750000e+01) (5, 3.90527114868164062500e+01) (6, 3.91464385986328125000e+01) (7, 3.92178573608398437500e+01) (8, 3.91226501464843750000e+01) (9, 3.92205810546875000000e+01) (10, 3.90815963745117187500e+01) (11, 3.91590347290039062500e+01) (12, 3.90705413818359375000e+01) (13, 3.92286529541015625000e+01) (14, 3.92040481567382812500e+01) (15, 3.92457199096679687500e+01) (16, -3.85524541139602661133e-01) (17, -3.74815315008163452148e-01) (18, -8.66427302360534667969e-01) (19, 9.84906315803527832031e-01) (20, -7.80375063419342041016e-01) (21, -3.99087697267532348633e-01) (22, -8.03212821483612060547e-02) (23, -7.65008926391601562500e-01) (24, -2.71958887577056884766e-01) (25, -7.56351113319396972656e-01) (26, -1.72096693515777587891e+00) (27, 6.47067368030548095703e-01) (28, -2.98173451423645019531e+00) (29, -6.87062144279479980469e-01) (30, -9.77889180183410644531e-01) (31, 2.34830045700073242188e+00) (32, 3.47011780738830566406e+00) (33, -7.89133548736572265625e-01) (34, 3.05546355247497558594e+00) (35, -7.01881527900695800781e-01) (36, -3.71249055862426757812e+00) (37, -8.33381772041320800781e-01) (38, 7.46625423431396484375e+00) (39, -1.22218990325927734375e+00) (40, 2.37403297424316406250e+00) (41, 2.96764349937438964844e+00) (42, -1.54968351125717163086e-01) (43, 8.73032212257385253906e-03) (44, 6.60850405693054199219e-02) (45, 1.47464692592620849609e+00) (46, 4.58744764328002929688e-02) (47, 9.06642317771911621094e-01) (48, -8.01070499420166015625e+00) (49, 3.49438023567199707031e+00) (50, -2.69097954034805297852e-01) (51, -2.61674463748931884766e-01) (52, 2.96060562133789062500e-01) (53, 1.09483551979064941406e+00) (54, -4.47438657283782958984e-02) (55, 5.29757797718048095703e-01) (56, -8.21311950683593750000e-01) (57, 9.97505664825439453125e+00) (58, -2.87139034271240234375e+00) (59, -5.27267813682556152344e-01) (60, -1.53890907764434814453e+00) (61, -6.11617267131805419922e-01) (62, 3.16176390647888183594e+00) (63, 2.14015150070190429688e+00) (64, -2.93589830398559570312e+00) (65, -1.15190660953521728516e+00) (66, -4.91797924041748046875e-01) (67, 3.30490946769714355469e+00) (68, -3.14155131578445434570e-01) (69, 3.17193841934204101562e+00) (70, 4.11048030853271484375e+00) (71, 2.14552849531173706055e-01) (72, -3.32903838157653808594e+00) (73, -1.90111279487609863281e+00) (74, -1.24149441719055175781e+00) (75, 2.50807309150695800781e+00) (76, 1.11305248737335205078e+00) (77, 2.16206878423690795898e-01) (78, -9.52742576599121093750e+00) (79, 2.01276493072509765625e+00) (80, 6.48402988910675048828e-01) (81, 1.60331976413726806641e+00) (82, -7.43200349807739257812e+00) (83, -1.08029997348785400391e+00) (84, -2.61619389057159423828e-01) (85, -1.15519123077392578125e+01) (86, -1.63269863128662109375e+01) (87, 1.48751056194305419922e+00) (88, 1.92281746864318847656e+00) (89, 1.13553881645202636719e+00) (90, 3.55721592903137207031e-01) (91, -8.02534675598144531250e+00) (92, -2.17272028326988220215e-01) (93, -7.04096913337707519531e-01) (94, -1.10518014430999755859e+00) (95, 1.46864569187164306641e+00) (96, -1.90626263618469238281e+00) (97, -1.01777565479278564453e+00) (98, 3.16402524709701538086e-01) (99, -2.86328010261058807373e-02) (100, -1.90066266059875488281e+00) (101, 1.13539838790893554688e+00) (102, -6.07903420925140380859e-01) (103, 5.16809654235839843750e+00) (104, 8.14285695552825927734e-01) (105, -4.01562660932540893555e-01) (106, -7.88339614868164062500e-01) (107, 2.16387581825256347656e+00) (108, 4.57009911537170410156e-01) (109, -6.92054867744445800781e-01) (110, -7.49847078323364257812e+00) (111, -6.41464662551879882812e+00) (112, 2.88468432426452636719e+00) (113, 1.05615258216857910156e+00) (114, -1.62749290466308593750e+01) (115, -4.28089094161987304688e+00) (116, -1.72969892621040344238e-01) (117, 1.46461880207061767578e+00) (118, -3.89715760946273803711e-01) (119, -7.48872458934783935547e-01) (120, -5.54964923858642578125e+00) (121, -7.19748795032501220703e-01) (122, 4.09094905853271484375e+00) (123, 1.90915775299072265625e+00) (124, -5.62314176559448242188e+00) (125, -5.27438402175903320312e-01) (126, 6.33443176746368408203e-01) (127, 2.16354632377624511719e+00) (128, -1.19065809249877929688e+00) (129, -4.88477420806884765625e+00) (130, 6.42940342426300048828e-01) (131, 2.19193983078002929688e+00) (132, 8.29929411411285400391e-01) (133, -1.75420150160789489746e-01) (134, -8.03937196731567382812e-01) (135, -1.57874798774719238281e+00) (136, 6.31801426410675048828e-01) (137, 3.17031478881835937500e+00) (138, -2.82865822315216064453e-01) (139, -5.21516418457031250000e+00) (140, 2.08259534835815429688e+00) (141, 5.24482393264770507812e+00) (142, -2.91686940193176269531e+00) (143, 4.03365516662597656250e+00) (144, -4.87868100404739379883e-01) (145, -3.37678223848342895508e-01) (146, 8.36267113685607910156e-01) (147, 1.51535972952842712402e-01) (148, -4.15454196929931640625e+00) (149, -2.26539301872253417969e+00) (150, -2.26109087467193603516e-01) (151, 5.93990147113800048828e-01) (152, -3.65534871816635131836e-01) (153, -4.70526367425918579102e-01) (154, -6.30950391292572021484e-01) (155, -3.69565695524215698242e-01) (156, -1.51784837245941162109e+00) (157, -4.61623579263687133789e-01) (158, 1.97222542762756347656e+00) (159, 1.39821782708168029785e-01) (160, -4.33265209197998046875e-01) (161, -2.16294825077056884766e-01) (162, -3.00962257385253906250e+00) (163, -8.22651743888854980469e-01) (164, 1.15253829956054687500e+00) (165, -4.39164280891418457031e-01) (166, 7.42419481277465820312e-01) (167, -3.73436546325683593750e+00) (168, -1.24727189540863037109e+00) (169, 4.03018236160278320312e+00) (170, -4.94153052568435668945e-01) (171, -5.94710826873779296875e-01) (172, -6.45146548748016357422e-01) (173, 1.68808415532112121582e-01) (174, -6.68060731887817382812e+00) (175, 4.81172174215316772461e-01) (176, -7.30120360851287841797e-01) (177, -6.12224757671356201172e-01) (178, -5.39421975612640380859e-01) (179, -5.65490186214447021484e-01) (180, -5.79626023769378662109e-01) (181, -6.14232957363128662109e-01) (182, -7.17364013195037841797e-01) (183, -5.73156297206878662109e-01) (184, -6.52105271816253662109e-01) (185, -5.50591409206390380859e-01) (186, -7.26201951503753662109e-01) (187, -6.55016601085662841797e-01) (188, -5.95086038112640380859e-01) (189, -6.14928662776947021484e-01) (190, -6.76360547542572021484e-01) (191, -7.05864846706390380859e-01) (192, -5.45977294445037841797e-01) (0, 3.91519165039062500000e+01) (1, 3.90851745605468750000e+01) (2, 3.91297302246093750000e+01) (3, 3.90914993286132812500e+01) (4, 3.91346282958984375000e+01) (5, 3.90756530761718750000e+01) (6, 3.91740722656250000000e+01) (7, 3.92162399291992187500e+01) (8, 3.90718841552734375000e+01) (9, 3.90751953125000000000e+01) (10, 3.91044006347656250000e+01) (11, 3.91496810913085937500e+01) (12, 3.91642303466796875000e+01) (13, 3.91221084594726562500e+01) (14, 3.91859817504882812500e+01) (15, 3.90555572509765625000e+01) (16, -4.09340411424636840820e-01) (17, -4.38127011060714721680e-01) (18, -1.01916158199310302734e+00) (19, 1.06615161895751953125e+00) (20, -8.82223606109619140625e-01) (21, -5.09317159652709960938e-01) (22, -1.25121101737022399902e-01) (23, -5.43049514293670654297e-01) (24, -1.45397871732711791992e-01) (25, -7.57254481315612792969e-01) (26, -1.53617167472839355469e+00) (27, 5.89730918407440185547e-01) (28, -2.96852040290832519531e+00) (29, -7.85182356834411621094e-01) (30, -8.87052953243255615234e-01) (31, 2.37143278121948242188e+00) (32, 4.96705007553100585938e+00) (33, -9.20841217041015625000e-01) (34, 2.57901573181152343750e+00) (35, -8.07759165763854980469e-01) (36, -3.69513225555419921875e+00) (37, -8.22694420814514160156e-01) (38, 4.65771293640136718750e+00) (39, -5.36609530448913574219e-01) (40, 2.35459327697753906250e+00) (41, 2.80274462699890136719e+00) (42, -2.59466648101806640625e-01) (43, 8.71654927730560302734e-01) (44, 8.11364054679870605469e-02) (45, 1.38453435897827148438e+00) (46, 7.44817256927490234375e-02) (47, 1.01171207427978515625e+00) (48, -7.87416934967041015625e+00) (49, 3.52094244956970214844e+00) (50, -3.66772323846817016602e-01) (51, -4.22724485397338867188e-01) (52, 9.47517573833465576172e-01) (53, 2.36732745170593261719e+00) (54, -5.34901320934295654297e-02) (55, 6.33456528186798095703e-01) (56, -8.76313567161560058594e-01) (57, 1.29838066101074218750e+01) (58, -1.94239044189453125000e+00) (59, -5.24814009666442871094e-01) (60, -1.45900619029998779297e+00) (61, -6.33254051208496093750e-01) (62, 3.18542098999023437500e+00) (63, 2.12667489051818847656e+00) (64, -2.98909044265747070312e+00) (65, -1.04784166812896728516e+00) (66, -3.28175097703933715820e-01) (67, 3.35875487327575683594e+00) (68, -3.26356202363967895508e-01) (69, 3.31004261970520019531e+00) (70, 4.04318284988403320312e+00) (71, 3.21034759283065795898e-01) (72, -3.29905152320861816406e+00) (73, -1.92888975143432617188e+00) (74, -1.17601585388183593750e+00) (75, 2.55927562713623046875e+00) (76, 9.34426903724670410156e-01) (77, 1.73549503087997436523e-01) (78, -9.40301322937011718750e+00) (79, 1.96768426895141601562e+00) (80, 8.16074430942535400391e-01) (81, 1.64274418354034423828e+00) (82, -7.42718172073364257812e+00) (83, -8.69424045085906982422e-01) (84, -6.37300789356231689453e-01) (85, -1.13589191436767578125e+01) (86, -6.60360527038574218750e+00) (87, 1.79264736175537109375e+00) (88, 3.27191996574401855469e+00) (89, 1.48055970668792724609e+00) (90, -1.61205977201461791992e-01) (91, -7.08177471160888671875e+00) (92, -9.80928987264633178711e-02) (93, -8.39582085609436035156e-01) (94, -1.02344810962677001953e+00) (95, 1.63202035427093505859e+00) (96, -2.26166892051696777344e+00) (97, -1.13238751888275146484e+00) (98, 2.61531919240951538086e-01) (99, -8.24705883860588073730e-03) (100, -1.93708503246307373047e+00) (101, 2.12804269790649414062e+00) (102, -5.43541848659515380859e-01) (103, 5.22641563415527343750e+00) (104, 8.85818839073181152344e-01) (105, -3.69427710771560668945e-01) (106, -6.89383327960968017578e-01) (107, 1.61578905582427978516e+00) (108, 4.65579271316528320312e-01) (109, -7.43928551673889160156e-01) (110, -7.36604881286621093750e+00) (111, -6.33732748031616210938e+00) (112, 2.91405463218688964844e+00) (113, 1.22890639305114746094e+00) (114, -1.64102134704589843750e+01) (115, -4.22054529190063476562e+00) (116, -5.14219999313354492188e-01) (117, 1.76333463191986083984e+00) (118, -3.66338491439819335938e-01) (119, -7.67913639545440673828e-01) (120, -2.15065169334411621094e+00) (121, -6.11202716827392578125e-01) (122, 4.69565296173095703125e+00) (123, 2.03871107101440429688e+00) (124, -5.51751422882080078125e+00) (125, -5.82082092761993408203e-01) (126, 7.32631504535675048828e-01) (127, 2.16630506515502929688e+00) (128, -1.14610242843627929688e+00) (129, -4.93833827972412109375e+00) (130, 7.47585117816925048828e-01) (131, 2.19329476356506347656e+00) (132, 7.38456070423126220703e-01) (133, -1.14275187253952026367e-01) (134, -8.21051597595214843750e-01) (135, 1.58726716041564941406e+00) (136, 6.86031162738800048828e-01) (137, 3.27339100837707519531e+00) (138, -3.45725864171981811523e-01) (139, -5.19665241241455078125e+00) (140, 2.13013553619384765625e+00) (141, 5.11436128616333007812e+00) (142, -2.82615303993225097656e+00) (143, 3.95593929290771484375e+00) (144, -4.72314447164535522461e-01) (145, -4.40259933471679687500e-01) (146, 8.03228795528411865234e-01) (147, 1.63865074515342712402e-01) (148, -4.30394411087036132812e+00) (149, -1.82819187641143798828e+00) (150, -3.94849807024002075195e-01) (151, 7.19026744365692138672e-01) (152, -4.09489542245864868164e-01) (153, -4.02380555868148803711e-01) (154, -6.36637151241302490234e-01) (155, -4.19974714517593383789e-01) (156, -1.57859027385711669922e+00) (157, -6.28347218036651611328e-01) (158, 2.37318086624145507812e+00) (159, -3.30846197903156280518e-02) (160, -3.18952590227127075195e-01) (161, -3.19902032613754272461e-01) (162, -2.99499845504760742188e+00) (163, -7.43269324302673339844e-01) (164, 2.38529634475708007812e+00) (165, -3.70280146598815917969e-01) (166, 8.00024390220642089844e-01) (167, -3.69184255599975585938e+00) (168, -1.34517848491668701172e+00) (169, 4.10785579681396484375e+00) (170, -3.97906690835952758789e-01) (171, -6.14718019962310791016e-01) (172, -5.27538955211639404297e-01) (173, 1.52701094746589660645e-01) (174, -6.66821098327636718750e+00) (175, 3.31727594137191772461e-01) (176, -5.84929883480072021484e-01) (177, -7.18505322933197021484e-01) (178, -5.67894876003265380859e-01) (179, -6.59691751003265380859e-01) (180, -5.93425929546356201172e-01) (181, -6.77862107753753662109e-01) (182, -7.28673875331878662109e-01) (183, -6.80742919445037841797e-01) (184, -5.60338914394378662109e-01) (185, -6.66222512722015380859e-01) (186, -5.58385789394378662109e-01) (187, -6.20910108089447021484e-01) (188, -6.10961377620697021484e-01) (189, -6.24029099941253662109e-01) (190, -5.86797654628753662109e-01) (191, -5.37633836269378662109e-01) (192, -7.32634961605072021484e-01) (0, 3.91713638305664062500e+01) (1, 3.91076965332031250000e+01) (2, 3.91417922973632812500e+01) (3, 3.91498947143554687500e+01) (4, 3.91751403808593750000e+01) (5, 3.91085128784179687500e+01) (6, 3.91079406738281250000e+01) (7, 3.91303939819335937500e+01) (8, 3.92425079345703125000e+01) (9, 3.91426773071289062500e+01) (10, 3.91079177856445312500e+01) (11, 3.91890563964843750000e+01) (12, 3.91927185058593750000e+01) (13, 3.92076492309570312500e+01) (14, 3.90838470458984375000e+01) (15, 3.91960906982421875000e+01) (16, -6.05671666562557220459e-03) (17, 6.59630298614501953125e-02) (18, 7.54037573933601379395e-02) (19, -3.85776567459106445312e+00) (20, 1.02519348263740539551e-01) (21, 2.35025912523269653320e-01) (22, -5.96914663910865783691e-02) (23, -1.05575777590274810791e-01) (24, -3.53912800550460815430e-01) (25, -1.73597708344459533691e-02) (26, 7.43829831480979919434e-02) (27, -5.31464040279388427734e-01) (28, 2.67254054546356201172e-01) (29, 4.03128117322921752930e-02) (30, 3.48792880773544311523e-01) (31, -4.30032539367675781250e+00) (32, -4.95500028133392333984e-01) (33, -1.17331976071000099182e-03) (34, -3.29194617271423339844e+00) (35, 6.06113672256469726562e-01) (36, 2.46884512901306152344e+00) (37, 2.78224319219589233398e-01) (38, -1.77357733249664306641e-01) (39, 5.11793851852416992188e-01) (40, -2.20682477951049804688e+00) (41, 2.04648405313491821289e-01) (42, -7.17350617051124572754e-02) (43, -6.48600012063980102539e-02) (44, 4.29160714149475097656e-01) (45, -4.69266355037689208984e-01) (46, -4.53496798872947692871e-02) (47, -5.62646567821502685547e-01) (48, 3.33781510591506958008e-01) (49, -5.72430379688739776611e-02) (50, -1.83287978172302246094e-01) (51, -3.21806877851486206055e-01) (52, -1.39055359363555908203e+00) (53, -2.48052388429641723633e-01) (54, -2.02955991029739379883e-01) (55, 1.00847475230693817139e-01) (56, 3.26044149696826934814e-02) (57, -3.54634709656238555908e-02) (58, 5.34449577331542968750e-01) (59, -1.40221834182739257812e-01) (60, -5.15822581946849822998e-02) (61, 3.97907495498657226562e-01) (62, -1.80552363395690917969e+00) (63, -1.25422706604003906250e+01) (64, 5.34247696399688720703e-01) (65, -8.40327963232994079590e-02) (66, 1.67509764432907104492e-01) (67, 4.31184917688369750977e-02) (68, 1.46714061498641967773e-01) (69, -7.50111043453216552734e-02) (70, -1.29724776744842529297e+00) (71, -2.69342869520187377930e-01) (72, 4.15930777788162231445e-01) (73, 4.21737611293792724609e-01) (74, 1.26782923936843872070e-01) (75, -1.27013289928436279297e+00) (76, -6.81885719299316406250e-01) (77, 5.64160645008087158203e-02) (78, 7.09310948848724365234e-01) (79, -7.41357207298278808594e-01) (80, -1.99546381831169128418e-01) (81, -2.38593792915344238281e+00) (82, 2.60582000017166137695e-01) (83, 7.67099261283874511719e-02) (84, 8.54906216263771057129e-02) (85, 3.67550283670425415039e-01) (86, 7.63849496841430664062e-01) (87, -5.48021614551544189453e-01) (88, -6.20254082605242729187e-03) (89, -1.17861533164978027344e+00) (90, -1.81757807731628417969e+00) (91, 3.69096547365188598633e-01) (92, -7.19222307205200195312e-01) (93, 5.53157925605773925781e-01) (94, 9.25047695636749267578e-02) (95, -1.18667566776275634766e+00) (96, -2.45253778994083404541e-02) (97, 3.68706703186035156250e-01) (98, 3.92122268676757812500e-02) (99, 1.11955277621746063232e-01) (100, 1.45936980843544006348e-01) (101, -1.83168089389801025391e+00) (102, 3.30346107482910156250e-01) (103, -2.74605184793472290039e-01) (104, -2.17868518829345703125e+00) (105, -9.29661840200424194336e-02) (106, 4.68492582440376281738e-02) (107, -6.74189150333404541016e-01) (108, -5.74736356735229492188e-01) (109, 5.19791662693023681641e-01) (110, 5.83630084991455078125e-01) (111, 3.54868292808532714844e-01) (112, -5.88933467864990234375e-01) (113, 7.34815001487731933594e-03) (114, 3.62257570028305053711e-01) (115, 1.73791706562042236328e-01) (116, 1.52998998761177062988e-01) (117, -3.34674924612045288086e-01) (118, 8.48224237561225891113e-02) (119, -5.75664499774575233459e-03) (120, 1.38874077796936035156e+00) (121, 7.88968354463577270508e-02) (122, 6.91488236188888549805e-02) (123, -2.82213270664215087891e-01) (124, 3.31877291202545166016e-01) (125, 3.52039694786071777344e-01) (126, -7.82637417316436767578e-01) (127, -3.17587041854858398438e+00) (128, 6.35361820459365844727e-02) (129, 3.12875330448150634766e-01) (130, -5.23164629936218261719e-01) (131, -4.87755119800567626953e-01) (132, -9.72666859626770019531e-01) (133, -3.83032798767089843750e-01) (134, 2.16660555452108383179e-02) (135, -7.50249803066253662109e-01) (136, -1.20124757289886474609e+00) (137, -4.20635826885700225830e-02) (138, -8.09002518653869628906e-02) (139, 2.25854203104972839355e-01) (140, -7.82447433471679687500e+00) (141, -2.08529233932495117188e+00) (142, 6.98139715194702148438e+00) (143, -2.31729567050933837891e-01) (144, 1.60159934312105178833e-02) (145, -8.67279097437858581543e-02) (146, -5.98788917064666748047e-01) (147, -8.13901960849761962891e-01) (148, 9.98268365859985351562e-01) (149, 6.04282557964324951172e-01) (150, -6.21778517961502075195e-02) (151, -7.01871156692504882812e-01) (152, -1.12744927406311035156e+00) (153, 2.56867945194244384766e-01) (154, 1.69995427131652832031e-02) (155, 5.19310355186462402344e-01) (156, 4.93970811367034912109e-01) (157, 5.53888380527496337891e-02) (158, -6.98412805795669555664e-02) (159, -3.89084637165069580078e-01) (160, -1.00074961781501770020e-01) (161, -1.07331853359937667847e-02) (162, 2.33014136552810668945e-01) (163, 3.19865852594375610352e-01) (164, -7.47173428535461425781e-02) (165, -4.66919660568237304688e-01) (166, -9.43733787536621093750e+00) (167, 1.02302229404449462891e+00) (168, -6.46343827247619628906e-02) (169, -1.26233339309692382812e-01) (170, 1.91084221005439758301e-01) (171, 2.76400357484817504883e-01) (172, 4.30353917181491851807e-02) (173, 2.15012240409851074219e+00) (174, 1.66773166656494140625e+01) (175, 5.16543745994567871094e-01) (176, 9.17772427201271057129e-02) (177, 7.39915743470191955566e-02) (178, 8.35069790482521057129e-02) (179, 8.24815705418586730957e-02) (180, 1.49949993938207626343e-02) (181, 9.31260958313941955566e-02) (182, -6.02125227451324462891e-02) (183, -6.77015259861946105957e-02) (184, -6.97645172476768493652e-02) (185, -8.81480611860752105713e-03) (186, 6.15128781646490097046e-04) (187, 2.58775800466537475586e-02) (188, -1.68590759858489036560e-03) (189, 9.64221917092800140381e-03) (190, 6.97374418377876281738e-02) (191, 6.72655180096626281738e-02) (192, 6.10826388001441955566e-02) (193, 3.53869414329528808594e+00) (194, 1.04744344949722290039e-01) (195, 4.56737279891967773438e-02) (196, -1.20759010314941406250e-04) (197, -1.64698052406311035156e+00) (198, -3.70621681213378906250e-04) (199, 1.02156460285186767578e-01) (200, 2.03597617149353027344e+00) (201, 2.02784609794616699219e+00) (202, -1.63383960723876953125e+00) (203, 1.52943789958953857422e-01) 
